<?xml version="1.0"?>
<MethodSetup Method="BDT::BDT">
  <GeneralInfo>
    <Info name="TMVA Release" value="4.2.1 [262657]"/>
    <Info name="ROOT Release" value="6.39/01 [403201]"/>
    <Info name="Creator" value="harsh"/>
    <Info name="Date" value="Tue Mar  3 07:15:00 2026"/>
    <Info name="Host" value="Linux h4rshs-princess 6.8.0-101-generic #101~22.04.1-Ubuntu SMP PREEMPT_DYNAMIC Wed Feb 11 13:19:54 UTC x86_64 x86_64 x86_64 GNU/Linux"/>
    <Info name="Dir" value="/media/harsh/MyPassport1/root/tutorials/machine_learning"/>
    <Info name="Training events" value="1600"/>
    <Info name="TrainingTime" value="3.39269876e-01"/>
    <Info name="AnalysisType" value="Classification"/>
  </GeneralInfo>
  <Options>
    <Option name="V" modified="Yes">False</Option>
    <Option name="VerbosityLevel" modified="No">Default</Option>
    <Option name="VarTransform" modified="No">None</Option>
    <Option name="H" modified="No">False</Option>
    <Option name="CreateMVAPdfs" modified="No">False</Option>
    <Option name="IgnoreNegWeightsInTraining" modified="No">False</Option>
    <Option name="NTrees" modified="Yes">200</Option>
    <Option name="MaxDepth" modified="Yes">2</Option>
    <Option name="MinNodeSize" modified="Yes">2.5%</Option>
    <Option name="nCuts" modified="Yes">20</Option>
    <Option name="BoostType" modified="Yes">AdaBoost</Option>
    <Option name="AdaBoostR2Loss" modified="No">quadratic</Option>
    <Option name="UseBaggedBoost" modified="Yes">True</Option>
    <Option name="Shrinkage" modified="No">1.000000e+00</Option>
    <Option name="AdaBoostBeta" modified="Yes">5.000000e-01</Option>
    <Option name="UseRandomisedTrees" modified="No">False</Option>
    <Option name="UseNvars" modified="No">16</Option>
    <Option name="UsePoissonNvars" modified="No">True</Option>
    <Option name="BaggedSampleFraction" modified="Yes">5.000000e-01</Option>
    <Option name="UseYesNoLeaf" modified="No">True</Option>
    <Option name="NegWeightTreatment" modified="No">inverseboostnegweights</Option>
    <Option name="Css" modified="No">1.000000e+00</Option>
    <Option name="Cts_sb" modified="No">1.000000e+00</Option>
    <Option name="Ctb_ss" modified="No">1.000000e+00</Option>
    <Option name="Cbb" modified="No">1.000000e+00</Option>
    <Option name="NodePurityLimit" modified="No">5.000000e-01</Option>
    <Option name="SeparationType" modified="Yes">giniindex</Option>
    <Option name="RegressionLossFunctionBDTG" modified="No">huber</Option>
    <Option name="HuberQuantile" modified="No">7.000000e-01</Option>
    <Option name="DoBoostMonitor" modified="No">False</Option>
    <Option name="UseFisherCuts" modified="No">False</Option>
    <Option name="MinLinCorrForFisher" modified="No">8.000000e-01</Option>
    <Option name="UseExclusiveVars" modified="No">False</Option>
    <Option name="DoPreselection" modified="No">False</Option>
    <Option name="SigToBkgFraction" modified="No">1.000000e+00</Option>
    <Option name="PruneMethod" modified="No">nopruning</Option>
    <Option name="PruneStrength" modified="No">0.000000e+00</Option>
    <Option name="PruningValFraction" modified="No">5.000000e-01</Option>
    <Option name="SkipNormalization" modified="No">False</Option>
    <Option name="nEventsMin" modified="No">0</Option>
    <Option name="UseBaggedGrad" modified="No">False</Option>
    <Option name="GradBaggingFraction" modified="No">5.000000e-01</Option>
    <Option name="UseNTrainEvents" modified="No">0</Option>
    <Option name="NNodesMax" modified="No">0</Option>
  </Options>
  <Variables NVar="256">
    <Variable VarIndex="0" Expression="vars" Label="vars" Title="[0]" Unit="" Internal="vars[0]" Type="F[]" Min="3.40282347e+38" Max="-3.40282347e+38"/>
    <Variable VarIndex="1" Expression="vars" Label="vars" Title="[1]" Unit="" Internal="vars[1]" Type="F[]" Min="3.40282347e+38" Max="-3.40282347e+38"/>
    <Variable VarIndex="2" Expression="vars" Label="vars" Title="[2]" Unit="" Internal="vars[2]" Type="F[]" Min="3.40282347e+38" Max="-3.40282347e+38"/>
    <Variable VarIndex="3" Expression="vars" Label="vars" Title="[3]" Unit="" Internal="vars[3]" Type="F[]" Min="3.40282347e+38" Max="-3.40282347e+38"/>
    <Variable VarIndex="4" Expression="vars" Label="vars" Title="[4]" Unit="" Internal="vars[4]" Type="F[]" Min="3.40282347e+38" Max="-3.40282347e+38"/>
    <Variable VarIndex="5" Expression="vars" Label="vars" Title="[5]" Unit="" Internal="vars[5]" Type="F[]" Min="3.40282347e+38" Max="-3.40282347e+38"/>
    <Variable VarIndex="6" Expression="vars" Label="vars" Title="[6]" Unit="" Internal="vars[6]" Type="F[]" Min="3.40282347e+38" Max="-3.40282347e+38"/>
    <Variable VarIndex="7" Expression="vars" Label="vars" Title="[7]" Unit="" Internal="vars[7]" Type="F[]" Min="3.40282347e+38" Max="-3.40282347e+38"/>
    <Variable VarIndex="8" Expression="vars" Label="vars" Title="[8]" Unit="" Internal="vars[8]" Type="F[]" Min="3.40282347e+38" Max="-3.40282347e+38"/>
    <Variable VarIndex="9" Expression="vars" Label="vars" Title="[9]" Unit="" Internal="vars[9]" Type="F[]" Min="3.40282347e+38" Max="-3.40282347e+38"/>
    <Variable VarIndex="10" Expression="vars" Label="vars" Title="[10]" Unit="" Internal="vars[10]" Type="F[]" Min="3.40282347e+38" Max="-3.40282347e+38"/>
    <Variable VarIndex="11" Expression="vars" Label="vars" Title="[11]" Unit="" Internal="vars[11]" Type="F[]" Min="3.40282347e+38" Max="-3.40282347e+38"/>
    <Variable VarIndex="12" Expression="vars" Label="vars" Title="[12]" Unit="" Internal="vars[12]" Type="F[]" Min="3.40282347e+38" Max="-3.40282347e+38"/>
    <Variable VarIndex="13" Expression="vars" Label="vars" Title="[13]" Unit="" Internal="vars[13]" Type="F[]" Min="3.40282347e+38" Max="-3.40282347e+38"/>
    <Variable VarIndex="14" Expression="vars" Label="vars" Title="[14]" Unit="" Internal="vars[14]" Type="F[]" Min="3.40282347e+38" Max="-3.40282347e+38"/>
    <Variable VarIndex="15" Expression="vars" Label="vars" Title="[15]" Unit="" Internal="vars[15]" Type="F[]" Min="3.40282347e+38" Max="-3.40282347e+38"/>
    <Variable VarIndex="16" Expression="vars" Label="vars" Title="[16]" Unit="" Internal="vars[16]" Type="F[]" Min="3.40282347e+38" Max="-3.40282347e+38"/>
    <Variable VarIndex="17" Expression="vars" Label="vars" Title="[17]" Unit="" Internal="vars[17]" Type="F[]" Min="3.40282347e+38" Max="-3.40282347e+38"/>
    <Variable VarIndex="18" Expression="vars" Label="vars" Title="[18]" Unit="" Internal="vars[18]" Type="F[]" Min="3.40282347e+38" Max="-3.40282347e+38"/>
    <Variable VarIndex="19" Expression="vars" Label="vars" Title="[19]" Unit="" Internal="vars[19]" Type="F[]" Min="3.40282347e+38" Max="-3.40282347e+38"/>
    <Variable VarIndex="20" Expression="vars" Label="vars" Title="[20]" Unit="" Internal="vars[20]" Type="F[]" Min="3.40282347e+38" Max="-3.40282347e+38"/>
    <Variable VarIndex="21" Expression="vars" Label="vars" Title="[21]" Unit="" Internal="vars[21]" Type="F[]" Min="3.40282347e+38" Max="-3.40282347e+38"/>
    <Variable VarIndex="22" Expression="vars" Label="vars" Title="[22]" Unit="" Internal="vars[22]" Type="F[]" Min="3.40282347e+38" Max="-3.40282347e+38"/>
    <Variable VarIndex="23" Expression="vars" Label="vars" Title="[23]" Unit="" Internal="vars[23]" Type="F[]" Min="3.40282347e+38" Max="-3.40282347e+38"/>
    <Variable VarIndex="24" Expression="vars" Label="vars" Title="[24]" Unit="" Internal="vars[24]" Type="F[]" Min="3.40282347e+38" Max="-3.40282347e+38"/>
    <Variable VarIndex="25" Expression="vars" Label="vars" Title="[25]" Unit="" Internal="vars[25]" Type="F[]" Min="3.40282347e+38" Max="-3.40282347e+38"/>
    <Variable VarIndex="26" Expression="vars" Label="vars" Title="[26]" Unit="" Internal="vars[26]" Type="F[]" Min="3.40282347e+38" Max="-3.40282347e+38"/>
    <Variable VarIndex="27" Expression="vars" Label="vars" Title="[27]" Unit="" Internal="vars[27]" Type="F[]" Min="3.40282347e+38" Max="-3.40282347e+38"/>
    <Variable VarIndex="28" Expression="vars" Label="vars" Title="[28]" Unit="" Internal="vars[28]" Type="F[]" Min="3.40282347e+38" Max="-3.40282347e+38"/>
    <Variable VarIndex="29" Expression="vars" Label="vars" Title="[29]" Unit="" Internal="vars[29]" Type="F[]" Min="3.40282347e+38" Max="-3.40282347e+38"/>
    <Variable VarIndex="30" Expression="vars" Label="vars" Title="[30]" Unit="" Internal="vars[30]" Type="F[]" Min="3.40282347e+38" Max="-3.40282347e+38"/>
    <Variable VarIndex="31" Expression="vars" Label="vars" Title="[31]" Unit="" Internal="vars[31]" Type="F[]" Min="3.40282347e+38" Max="-3.40282347e+38"/>
    <Variable VarIndex="32" Expression="vars" Label="vars" Title="[32]" Unit="" Internal="vars[32]" Type="F[]" Min="3.40282347e+38" Max="-3.40282347e+38"/>
    <Variable VarIndex="33" Expression="vars" Label="vars" Title="[33]" Unit="" Internal="vars[33]" Type="F[]" Min="3.40282347e+38" Max="-3.40282347e+38"/>
    <Variable VarIndex="34" Expression="vars" Label="vars" Title="[34]" Unit="" Internal="vars[34]" Type="F[]" Min="3.40282347e+38" Max="-3.40282347e+38"/>
    <Variable VarIndex="35" Expression="vars" Label="vars" Title="[35]" Unit="" Internal="vars[35]" Type="F[]" Min="3.40282347e+38" Max="-3.40282347e+38"/>
    <Variable VarIndex="36" Expression="vars" Label="vars" Title="[36]" Unit="" Internal="vars[36]" Type="F[]" Min="3.40282347e+38" Max="-3.40282347e+38"/>
    <Variable VarIndex="37" Expression="vars" Label="vars" Title="[37]" Unit="" Internal="vars[37]" Type="F[]" Min="3.40282347e+38" Max="-3.40282347e+38"/>
    <Variable VarIndex="38" Expression="vars" Label="vars" Title="[38]" Unit="" Internal="vars[38]" Type="F[]" Min="3.40282347e+38" Max="-3.40282347e+38"/>
    <Variable VarIndex="39" Expression="vars" Label="vars" Title="[39]" Unit="" Internal="vars[39]" Type="F[]" Min="3.40282347e+38" Max="-3.40282347e+38"/>
    <Variable VarIndex="40" Expression="vars" Label="vars" Title="[40]" Unit="" Internal="vars[40]" Type="F[]" Min="3.40282347e+38" Max="-3.40282347e+38"/>
    <Variable VarIndex="41" Expression="vars" Label="vars" Title="[41]" Unit="" Internal="vars[41]" Type="F[]" Min="3.40282347e+38" Max="-3.40282347e+38"/>
    <Variable VarIndex="42" Expression="vars" Label="vars" Title="[42]" Unit="" Internal="vars[42]" Type="F[]" Min="3.40282347e+38" Max="-3.40282347e+38"/>
    <Variable VarIndex="43" Expression="vars" Label="vars" Title="[43]" Unit="" Internal="vars[43]" Type="F[]" Min="3.40282347e+38" Max="-3.40282347e+38"/>
    <Variable VarIndex="44" Expression="vars" Label="vars" Title="[44]" Unit="" Internal="vars[44]" Type="F[]" Min="3.40282347e+38" Max="-3.40282347e+38"/>
    <Variable VarIndex="45" Expression="vars" Label="vars" Title="[45]" Unit="" Internal="vars[45]" Type="F[]" Min="3.40282347e+38" Max="-3.40282347e+38"/>
    <Variable VarIndex="46" Expression="vars" Label="vars" Title="[46]" Unit="" Internal="vars[46]" Type="F[]" Min="3.40282347e+38" Max="-3.40282347e+38"/>
    <Variable VarIndex="47" Expression="vars" Label="vars" Title="[47]" Unit="" Internal="vars[47]" Type="F[]" Min="3.40282347e+38" Max="-3.40282347e+38"/>
    <Variable VarIndex="48" Expression="vars" Label="vars" Title="[48]" Unit="" Internal="vars[48]" Type="F[]" Min="3.40282347e+38" Max="-3.40282347e+38"/>
    <Variable VarIndex="49" Expression="vars" Label="vars" Title="[49]" Unit="" Internal="vars[49]" Type="F[]" Min="3.40282347e+38" Max="-3.40282347e+38"/>
    <Variable VarIndex="50" Expression="vars" Label="vars" Title="[50]" Unit="" Internal="vars[50]" Type="F[]" Min="3.40282347e+38" Max="-3.40282347e+38"/>
    <Variable VarIndex="51" Expression="vars" Label="vars" Title="[51]" Unit="" Internal="vars[51]" Type="F[]" Min="3.40282347e+38" Max="-3.40282347e+38"/>
    <Variable VarIndex="52" Expression="vars" Label="vars" Title="[52]" Unit="" Internal="vars[52]" Type="F[]" Min="3.40282347e+38" Max="-3.40282347e+38"/>
    <Variable VarIndex="53" Expression="vars" Label="vars" Title="[53]" Unit="" Internal="vars[53]" Type="F[]" Min="3.40282347e+38" Max="-3.40282347e+38"/>
    <Variable VarIndex="54" Expression="vars" Label="vars" Title="[54]" Unit="" Internal="vars[54]" Type="F[]" Min="3.40282347e+38" Max="-3.40282347e+38"/>
    <Variable VarIndex="55" Expression="vars" Label="vars" Title="[55]" Unit="" Internal="vars[55]" Type="F[]" Min="3.40282347e+38" Max="-3.40282347e+38"/>
    <Variable VarIndex="56" Expression="vars" Label="vars" Title="[56]" Unit="" Internal="vars[56]" Type="F[]" Min="3.40282347e+38" Max="-3.40282347e+38"/>
    <Variable VarIndex="57" Expression="vars" Label="vars" Title="[57]" Unit="" Internal="vars[57]" Type="F[]" Min="3.40282347e+38" Max="-3.40282347e+38"/>
    <Variable VarIndex="58" Expression="vars" Label="vars" Title="[58]" Unit="" Internal="vars[58]" Type="F[]" Min="3.40282347e+38" Max="-3.40282347e+38"/>
    <Variable VarIndex="59" Expression="vars" Label="vars" Title="[59]" Unit="" Internal="vars[59]" Type="F[]" Min="3.40282347e+38" Max="-3.40282347e+38"/>
    <Variable VarIndex="60" Expression="vars" Label="vars" Title="[60]" Unit="" Internal="vars[60]" Type="F[]" Min="3.40282347e+38" Max="-3.40282347e+38"/>
    <Variable VarIndex="61" Expression="vars" Label="vars" Title="[61]" Unit="" Internal="vars[61]" Type="F[]" Min="3.40282347e+38" Max="-3.40282347e+38"/>
    <Variable VarIndex="62" Expression="vars" Label="vars" Title="[62]" Unit="" Internal="vars[62]" Type="F[]" Min="3.40282347e+38" Max="-3.40282347e+38"/>
    <Variable VarIndex="63" Expression="vars" Label="vars" Title="[63]" Unit="" Internal="vars[63]" Type="F[]" Min="3.40282347e+38" Max="-3.40282347e+38"/>
    <Variable VarIndex="64" Expression="vars" Label="vars" Title="[64]" Unit="" Internal="vars[64]" Type="F[]" Min="3.40282347e+38" Max="-3.40282347e+38"/>
    <Variable VarIndex="65" Expression="vars" Label="vars" Title="[65]" Unit="" Internal="vars[65]" Type="F[]" Min="3.40282347e+38" Max="-3.40282347e+38"/>
    <Variable VarIndex="66" Expression="vars" Label="vars" Title="[66]" Unit="" Internal="vars[66]" Type="F[]" Min="3.40282347e+38" Max="-3.40282347e+38"/>
    <Variable VarIndex="67" Expression="vars" Label="vars" Title="[67]" Unit="" Internal="vars[67]" Type="F[]" Min="3.40282347e+38" Max="-3.40282347e+38"/>
    <Variable VarIndex="68" Expression="vars" Label="vars" Title="[68]" Unit="" Internal="vars[68]" Type="F[]" Min="3.40282347e+38" Max="-3.40282347e+38"/>
    <Variable VarIndex="69" Expression="vars" Label="vars" Title="[69]" Unit="" Internal="vars[69]" Type="F[]" Min="3.40282347e+38" Max="-3.40282347e+38"/>
    <Variable VarIndex="70" Expression="vars" Label="vars" Title="[70]" Unit="" Internal="vars[70]" Type="F[]" Min="3.40282347e+38" Max="-3.40282347e+38"/>
    <Variable VarIndex="71" Expression="vars" Label="vars" Title="[71]" Unit="" Internal="vars[71]" Type="F[]" Min="3.40282347e+38" Max="-3.40282347e+38"/>
    <Variable VarIndex="72" Expression="vars" Label="vars" Title="[72]" Unit="" Internal="vars[72]" Type="F[]" Min="3.40282347e+38" Max="-3.40282347e+38"/>
    <Variable VarIndex="73" Expression="vars" Label="vars" Title="[73]" Unit="" Internal="vars[73]" Type="F[]" Min="3.40282347e+38" Max="-3.40282347e+38"/>
    <Variable VarIndex="74" Expression="vars" Label="vars" Title="[74]" Unit="" Internal="vars[74]" Type="F[]" Min="3.40282347e+38" Max="-3.40282347e+38"/>
    <Variable VarIndex="75" Expression="vars" Label="vars" Title="[75]" Unit="" Internal="vars[75]" Type="F[]" Min="3.40282347e+38" Max="-3.40282347e+38"/>
    <Variable VarIndex="76" Expression="vars" Label="vars" Title="[76]" Unit="" Internal="vars[76]" Type="F[]" Min="3.40282347e+38" Max="-3.40282347e+38"/>
    <Variable VarIndex="77" Expression="vars" Label="vars" Title="[77]" Unit="" Internal="vars[77]" Type="F[]" Min="3.40282347e+38" Max="-3.40282347e+38"/>
    <Variable VarIndex="78" Expression="vars" Label="vars" Title="[78]" Unit="" Internal="vars[78]" Type="F[]" Min="3.40282347e+38" Max="-3.40282347e+38"/>
    <Variable VarIndex="79" Expression="vars" Label="vars" Title="[79]" Unit="" Internal="vars[79]" Type="F[]" Min="3.40282347e+38" Max="-3.40282347e+38"/>
    <Variable VarIndex="80" Expression="vars" Label="vars" Title="[80]" Unit="" Internal="vars[80]" Type="F[]" Min="3.40282347e+38" Max="-3.40282347e+38"/>
    <Variable VarIndex="81" Expression="vars" Label="vars" Title="[81]" Unit="" Internal="vars[81]" Type="F[]" Min="3.40282347e+38" Max="-3.40282347e+38"/>
    <Variable VarIndex="82" Expression="vars" Label="vars" Title="[82]" Unit="" Internal="vars[82]" Type="F[]" Min="3.40282347e+38" Max="-3.40282347e+38"/>
    <Variable VarIndex="83" Expression="vars" Label="vars" Title="[83]" Unit="" Internal="vars[83]" Type="F[]" Min="3.40282347e+38" Max="-3.40282347e+38"/>
    <Variable VarIndex="84" Expression="vars" Label="vars" Title="[84]" Unit="" Internal="vars[84]" Type="F[]" Min="3.40282347e+38" Max="-3.40282347e+38"/>
    <Variable VarIndex="85" Expression="vars" Label="vars" Title="[85]" Unit="" Internal="vars[85]" Type="F[]" Min="3.40282347e+38" Max="-3.40282347e+38"/>
    <Variable VarIndex="86" Expression="vars" Label="vars" Title="[86]" Unit="" Internal="vars[86]" Type="F[]" Min="3.40282347e+38" Max="-3.40282347e+38"/>
    <Variable VarIndex="87" Expression="vars" Label="vars" Title="[87]" Unit="" Internal="vars[87]" Type="F[]" Min="3.40282347e+38" Max="-3.40282347e+38"/>
    <Variable VarIndex="88" Expression="vars" Label="vars" Title="[88]" Unit="" Internal="vars[88]" Type="F[]" Min="3.40282347e+38" Max="-3.40282347e+38"/>
    <Variable VarIndex="89" Expression="vars" Label="vars" Title="[89]" Unit="" Internal="vars[89]" Type="F[]" Min="3.40282347e+38" Max="-3.40282347e+38"/>
    <Variable VarIndex="90" Expression="vars" Label="vars" Title="[90]" Unit="" Internal="vars[90]" Type="F[]" Min="3.40282347e+38" Max="-3.40282347e+38"/>
    <Variable VarIndex="91" Expression="vars" Label="vars" Title="[91]" Unit="" Internal="vars[91]" Type="F[]" Min="3.40282347e+38" Max="-3.40282347e+38"/>
    <Variable VarIndex="92" Expression="vars" Label="vars" Title="[92]" Unit="" Internal="vars[92]" Type="F[]" Min="3.40282347e+38" Max="-3.40282347e+38"/>
    <Variable VarIndex="93" Expression="vars" Label="vars" Title="[93]" Unit="" Internal="vars[93]" Type="F[]" Min="3.40282347e+38" Max="-3.40282347e+38"/>
    <Variable VarIndex="94" Expression="vars" Label="vars" Title="[94]" Unit="" Internal="vars[94]" Type="F[]" Min="3.40282347e+38" Max="-3.40282347e+38"/>
    <Variable VarIndex="95" Expression="vars" Label="vars" Title="[95]" Unit="" Internal="vars[95]" Type="F[]" Min="3.40282347e+38" Max="-3.40282347e+38"/>
    <Variable VarIndex="96" Expression="vars" Label="vars" Title="[96]" Unit="" Internal="vars[96]" Type="F[]" Min="3.40282347e+38" Max="-3.40282347e+38"/>
    <Variable VarIndex="97" Expression="vars" Label="vars" Title="[97]" Unit="" Internal="vars[97]" Type="F[]" Min="3.40282347e+38" Max="-3.40282347e+38"/>
    <Variable VarIndex="98" Expression="vars" Label="vars" Title="[98]" Unit="" Internal="vars[98]" Type="F[]" Min="3.40282347e+38" Max="-3.40282347e+38"/>
    <Variable VarIndex="99" Expression="vars" Label="vars" Title="[99]" Unit="" Internal="vars[99]" Type="F[]" Min="3.40282347e+38" Max="-3.40282347e+38"/>
    <Variable VarIndex="100" Expression="vars" Label="vars" Title="[100]" Unit="" Internal="vars[100]" Type="F[]" Min="3.40282347e+38" Max="-3.40282347e+38"/>
    <Variable VarIndex="101" Expression="vars" Label="vars" Title="[101]" Unit="" Internal="vars[101]" Type="F[]" Min="3.40282347e+38" Max="-3.40282347e+38"/>
    <Variable VarIndex="102" Expression="vars" Label="vars" Title="[102]" Unit="" Internal="vars[102]" Type="F[]" Min="3.40282347e+38" Max="-3.40282347e+38"/>
    <Variable VarIndex="103" Expression="vars" Label="vars" Title="[103]" Unit="" Internal="vars[103]" Type="F[]" Min="3.40282347e+38" Max="-3.40282347e+38"/>
    <Variable VarIndex="104" Expression="vars" Label="vars" Title="[104]" Unit="" Internal="vars[104]" Type="F[]" Min="3.40282347e+38" Max="-3.40282347e+38"/>
    <Variable VarIndex="105" Expression="vars" Label="vars" Title="[105]" Unit="" Internal="vars[105]" Type="F[]" Min="3.40282347e+38" Max="-3.40282347e+38"/>
    <Variable VarIndex="106" Expression="vars" Label="vars" Title="[106]" Unit="" Internal="vars[106]" Type="F[]" Min="3.40282347e+38" Max="-3.40282347e+38"/>
    <Variable VarIndex="107" Expression="vars" Label="vars" Title="[107]" Unit="" Internal="vars[107]" Type="F[]" Min="3.40282347e+38" Max="-3.40282347e+38"/>
    <Variable VarIndex="108" Expression="vars" Label="vars" Title="[108]" Unit="" Internal="vars[108]" Type="F[]" Min="3.40282347e+38" Max="-3.40282347e+38"/>
    <Variable VarIndex="109" Expression="vars" Label="vars" Title="[109]" Unit="" Internal="vars[109]" Type="F[]" Min="3.40282347e+38" Max="-3.40282347e+38"/>
    <Variable VarIndex="110" Expression="vars" Label="vars" Title="[110]" Unit="" Internal="vars[110]" Type="F[]" Min="3.40282347e+38" Max="-3.40282347e+38"/>
    <Variable VarIndex="111" Expression="vars" Label="vars" Title="[111]" Unit="" Internal="vars[111]" Type="F[]" Min="3.40282347e+38" Max="-3.40282347e+38"/>
    <Variable VarIndex="112" Expression="vars" Label="vars" Title="[112]" Unit="" Internal="vars[112]" Type="F[]" Min="3.40282347e+38" Max="-3.40282347e+38"/>
    <Variable VarIndex="113" Expression="vars" Label="vars" Title="[113]" Unit="" Internal="vars[113]" Type="F[]" Min="3.40282347e+38" Max="-3.40282347e+38"/>
    <Variable VarIndex="114" Expression="vars" Label="vars" Title="[114]" Unit="" Internal="vars[114]" Type="F[]" Min="3.40282347e+38" Max="-3.40282347e+38"/>
    <Variable VarIndex="115" Expression="vars" Label="vars" Title="[115]" Unit="" Internal="vars[115]" Type="F[]" Min="3.40282347e+38" Max="-3.40282347e+38"/>
    <Variable VarIndex="116" Expression="vars" Label="vars" Title="[116]" Unit="" Internal="vars[116]" Type="F[]" Min="3.40282347e+38" Max="-3.40282347e+38"/>
    <Variable VarIndex="117" Expression="vars" Label="vars" Title="[117]" Unit="" Internal="vars[117]" Type="F[]" Min="3.40282347e+38" Max="-3.40282347e+38"/>
    <Variable VarIndex="118" Expression="vars" Label="vars" Title="[118]" Unit="" Internal="vars[118]" Type="F[]" Min="3.40282347e+38" Max="-3.40282347e+38"/>
    <Variable VarIndex="119" Expression="vars" Label="vars" Title="[119]" Unit="" Internal="vars[119]" Type="F[]" Min="3.40282347e+38" Max="-3.40282347e+38"/>
    <Variable VarIndex="120" Expression="vars" Label="vars" Title="[120]" Unit="" Internal="vars[120]" Type="F[]" Min="3.40282347e+38" Max="-3.40282347e+38"/>
    <Variable VarIndex="121" Expression="vars" Label="vars" Title="[121]" Unit="" Internal="vars[121]" Type="F[]" Min="3.40282347e+38" Max="-3.40282347e+38"/>
    <Variable VarIndex="122" Expression="vars" Label="vars" Title="[122]" Unit="" Internal="vars[122]" Type="F[]" Min="3.40282347e+38" Max="-3.40282347e+38"/>
    <Variable VarIndex="123" Expression="vars" Label="vars" Title="[123]" Unit="" Internal="vars[123]" Type="F[]" Min="3.40282347e+38" Max="-3.40282347e+38"/>
    <Variable VarIndex="124" Expression="vars" Label="vars" Title="[124]" Unit="" Internal="vars[124]" Type="F[]" Min="3.40282347e+38" Max="-3.40282347e+38"/>
    <Variable VarIndex="125" Expression="vars" Label="vars" Title="[125]" Unit="" Internal="vars[125]" Type="F[]" Min="3.40282347e+38" Max="-3.40282347e+38"/>
    <Variable VarIndex="126" Expression="vars" Label="vars" Title="[126]" Unit="" Internal="vars[126]" Type="F[]" Min="3.40282347e+38" Max="-3.40282347e+38"/>
    <Variable VarIndex="127" Expression="vars" Label="vars" Title="[127]" Unit="" Internal="vars[127]" Type="F[]" Min="3.40282347e+38" Max="-3.40282347e+38"/>
    <Variable VarIndex="128" Expression="vars" Label="vars" Title="[128]" Unit="" Internal="vars[128]" Type="F[]" Min="3.40282347e+38" Max="-3.40282347e+38"/>
    <Variable VarIndex="129" Expression="vars" Label="vars" Title="[129]" Unit="" Internal="vars[129]" Type="F[]" Min="3.40282347e+38" Max="-3.40282347e+38"/>
    <Variable VarIndex="130" Expression="vars" Label="vars" Title="[130]" Unit="" Internal="vars[130]" Type="F[]" Min="3.40282347e+38" Max="-3.40282347e+38"/>
    <Variable VarIndex="131" Expression="vars" Label="vars" Title="[131]" Unit="" Internal="vars[131]" Type="F[]" Min="3.40282347e+38" Max="-3.40282347e+38"/>
    <Variable VarIndex="132" Expression="vars" Label="vars" Title="[132]" Unit="" Internal="vars[132]" Type="F[]" Min="3.40282347e+38" Max="-3.40282347e+38"/>
    <Variable VarIndex="133" Expression="vars" Label="vars" Title="[133]" Unit="" Internal="vars[133]" Type="F[]" Min="3.40282347e+38" Max="-3.40282347e+38"/>
    <Variable VarIndex="134" Expression="vars" Label="vars" Title="[134]" Unit="" Internal="vars[134]" Type="F[]" Min="3.40282347e+38" Max="-3.40282347e+38"/>
    <Variable VarIndex="135" Expression="vars" Label="vars" Title="[135]" Unit="" Internal="vars[135]" Type="F[]" Min="3.40282347e+38" Max="-3.40282347e+38"/>
    <Variable VarIndex="136" Expression="vars" Label="vars" Title="[136]" Unit="" Internal="vars[136]" Type="F[]" Min="3.40282347e+38" Max="-3.40282347e+38"/>
    <Variable VarIndex="137" Expression="vars" Label="vars" Title="[137]" Unit="" Internal="vars[137]" Type="F[]" Min="3.40282347e+38" Max="-3.40282347e+38"/>
    <Variable VarIndex="138" Expression="vars" Label="vars" Title="[138]" Unit="" Internal="vars[138]" Type="F[]" Min="3.40282347e+38" Max="-3.40282347e+38"/>
    <Variable VarIndex="139" Expression="vars" Label="vars" Title="[139]" Unit="" Internal="vars[139]" Type="F[]" Min="3.40282347e+38" Max="-3.40282347e+38"/>
    <Variable VarIndex="140" Expression="vars" Label="vars" Title="[140]" Unit="" Internal="vars[140]" Type="F[]" Min="3.40282347e+38" Max="-3.40282347e+38"/>
    <Variable VarIndex="141" Expression="vars" Label="vars" Title="[141]" Unit="" Internal="vars[141]" Type="F[]" Min="3.40282347e+38" Max="-3.40282347e+38"/>
    <Variable VarIndex="142" Expression="vars" Label="vars" Title="[142]" Unit="" Internal="vars[142]" Type="F[]" Min="3.40282347e+38" Max="-3.40282347e+38"/>
    <Variable VarIndex="143" Expression="vars" Label="vars" Title="[143]" Unit="" Internal="vars[143]" Type="F[]" Min="3.40282347e+38" Max="-3.40282347e+38"/>
    <Variable VarIndex="144" Expression="vars" Label="vars" Title="[144]" Unit="" Internal="vars[144]" Type="F[]" Min="3.40282347e+38" Max="-3.40282347e+38"/>
    <Variable VarIndex="145" Expression="vars" Label="vars" Title="[145]" Unit="" Internal="vars[145]" Type="F[]" Min="3.40282347e+38" Max="-3.40282347e+38"/>
    <Variable VarIndex="146" Expression="vars" Label="vars" Title="[146]" Unit="" Internal="vars[146]" Type="F[]" Min="3.40282347e+38" Max="-3.40282347e+38"/>
    <Variable VarIndex="147" Expression="vars" Label="vars" Title="[147]" Unit="" Internal="vars[147]" Type="F[]" Min="3.40282347e+38" Max="-3.40282347e+38"/>
    <Variable VarIndex="148" Expression="vars" Label="vars" Title="[148]" Unit="" Internal="vars[148]" Type="F[]" Min="3.40282347e+38" Max="-3.40282347e+38"/>
    <Variable VarIndex="149" Expression="vars" Label="vars" Title="[149]" Unit="" Internal="vars[149]" Type="F[]" Min="3.40282347e+38" Max="-3.40282347e+38"/>
    <Variable VarIndex="150" Expression="vars" Label="vars" Title="[150]" Unit="" Internal="vars[150]" Type="F[]" Min="3.40282347e+38" Max="-3.40282347e+38"/>
    <Variable VarIndex="151" Expression="vars" Label="vars" Title="[151]" Unit="" Internal="vars[151]" Type="F[]" Min="3.40282347e+38" Max="-3.40282347e+38"/>
    <Variable VarIndex="152" Expression="vars" Label="vars" Title="[152]" Unit="" Internal="vars[152]" Type="F[]" Min="3.40282347e+38" Max="-3.40282347e+38"/>
    <Variable VarIndex="153" Expression="vars" Label="vars" Title="[153]" Unit="" Internal="vars[153]" Type="F[]" Min="3.40282347e+38" Max="-3.40282347e+38"/>
    <Variable VarIndex="154" Expression="vars" Label="vars" Title="[154]" Unit="" Internal="vars[154]" Type="F[]" Min="3.40282347e+38" Max="-3.40282347e+38"/>
    <Variable VarIndex="155" Expression="vars" Label="vars" Title="[155]" Unit="" Internal="vars[155]" Type="F[]" Min="3.40282347e+38" Max="-3.40282347e+38"/>
    <Variable VarIndex="156" Expression="vars" Label="vars" Title="[156]" Unit="" Internal="vars[156]" Type="F[]" Min="3.40282347e+38" Max="-3.40282347e+38"/>
    <Variable VarIndex="157" Expression="vars" Label="vars" Title="[157]" Unit="" Internal="vars[157]" Type="F[]" Min="3.40282347e+38" Max="-3.40282347e+38"/>
    <Variable VarIndex="158" Expression="vars" Label="vars" Title="[158]" Unit="" Internal="vars[158]" Type="F[]" Min="3.40282347e+38" Max="-3.40282347e+38"/>
    <Variable VarIndex="159" Expression="vars" Label="vars" Title="[159]" Unit="" Internal="vars[159]" Type="F[]" Min="3.40282347e+38" Max="-3.40282347e+38"/>
    <Variable VarIndex="160" Expression="vars" Label="vars" Title="[160]" Unit="" Internal="vars[160]" Type="F[]" Min="3.40282347e+38" Max="-3.40282347e+38"/>
    <Variable VarIndex="161" Expression="vars" Label="vars" Title="[161]" Unit="" Internal="vars[161]" Type="F[]" Min="3.40282347e+38" Max="-3.40282347e+38"/>
    <Variable VarIndex="162" Expression="vars" Label="vars" Title="[162]" Unit="" Internal="vars[162]" Type="F[]" Min="3.40282347e+38" Max="-3.40282347e+38"/>
    <Variable VarIndex="163" Expression="vars" Label="vars" Title="[163]" Unit="" Internal="vars[163]" Type="F[]" Min="3.40282347e+38" Max="-3.40282347e+38"/>
    <Variable VarIndex="164" Expression="vars" Label="vars" Title="[164]" Unit="" Internal="vars[164]" Type="F[]" Min="3.40282347e+38" Max="-3.40282347e+38"/>
    <Variable VarIndex="165" Expression="vars" Label="vars" Title="[165]" Unit="" Internal="vars[165]" Type="F[]" Min="3.40282347e+38" Max="-3.40282347e+38"/>
    <Variable VarIndex="166" Expression="vars" Label="vars" Title="[166]" Unit="" Internal="vars[166]" Type="F[]" Min="3.40282347e+38" Max="-3.40282347e+38"/>
    <Variable VarIndex="167" Expression="vars" Label="vars" Title="[167]" Unit="" Internal="vars[167]" Type="F[]" Min="3.40282347e+38" Max="-3.40282347e+38"/>
    <Variable VarIndex="168" Expression="vars" Label="vars" Title="[168]" Unit="" Internal="vars[168]" Type="F[]" Min="3.40282347e+38" Max="-3.40282347e+38"/>
    <Variable VarIndex="169" Expression="vars" Label="vars" Title="[169]" Unit="" Internal="vars[169]" Type="F[]" Min="3.40282347e+38" Max="-3.40282347e+38"/>
    <Variable VarIndex="170" Expression="vars" Label="vars" Title="[170]" Unit="" Internal="vars[170]" Type="F[]" Min="3.40282347e+38" Max="-3.40282347e+38"/>
    <Variable VarIndex="171" Expression="vars" Label="vars" Title="[171]" Unit="" Internal="vars[171]" Type="F[]" Min="3.40282347e+38" Max="-3.40282347e+38"/>
    <Variable VarIndex="172" Expression="vars" Label="vars" Title="[172]" Unit="" Internal="vars[172]" Type="F[]" Min="3.40282347e+38" Max="-3.40282347e+38"/>
    <Variable VarIndex="173" Expression="vars" Label="vars" Title="[173]" Unit="" Internal="vars[173]" Type="F[]" Min="3.40282347e+38" Max="-3.40282347e+38"/>
    <Variable VarIndex="174" Expression="vars" Label="vars" Title="[174]" Unit="" Internal="vars[174]" Type="F[]" Min="3.40282347e+38" Max="-3.40282347e+38"/>
    <Variable VarIndex="175" Expression="vars" Label="vars" Title="[175]" Unit="" Internal="vars[175]" Type="F[]" Min="3.40282347e+38" Max="-3.40282347e+38"/>
    <Variable VarIndex="176" Expression="vars" Label="vars" Title="[176]" Unit="" Internal="vars[176]" Type="F[]" Min="3.40282347e+38" Max="-3.40282347e+38"/>
    <Variable VarIndex="177" Expression="vars" Label="vars" Title="[177]" Unit="" Internal="vars[177]" Type="F[]" Min="3.40282347e+38" Max="-3.40282347e+38"/>
    <Variable VarIndex="178" Expression="vars" Label="vars" Title="[178]" Unit="" Internal="vars[178]" Type="F[]" Min="3.40282347e+38" Max="-3.40282347e+38"/>
    <Variable VarIndex="179" Expression="vars" Label="vars" Title="[179]" Unit="" Internal="vars[179]" Type="F[]" Min="3.40282347e+38" Max="-3.40282347e+38"/>
    <Variable VarIndex="180" Expression="vars" Label="vars" Title="[180]" Unit="" Internal="vars[180]" Type="F[]" Min="3.40282347e+38" Max="-3.40282347e+38"/>
    <Variable VarIndex="181" Expression="vars" Label="vars" Title="[181]" Unit="" Internal="vars[181]" Type="F[]" Min="3.40282347e+38" Max="-3.40282347e+38"/>
    <Variable VarIndex="182" Expression="vars" Label="vars" Title="[182]" Unit="" Internal="vars[182]" Type="F[]" Min="3.40282347e+38" Max="-3.40282347e+38"/>
    <Variable VarIndex="183" Expression="vars" Label="vars" Title="[183]" Unit="" Internal="vars[183]" Type="F[]" Min="3.40282347e+38" Max="-3.40282347e+38"/>
    <Variable VarIndex="184" Expression="vars" Label="vars" Title="[184]" Unit="" Internal="vars[184]" Type="F[]" Min="3.40282347e+38" Max="-3.40282347e+38"/>
    <Variable VarIndex="185" Expression="vars" Label="vars" Title="[185]" Unit="" Internal="vars[185]" Type="F[]" Min="3.40282347e+38" Max="-3.40282347e+38"/>
    <Variable VarIndex="186" Expression="vars" Label="vars" Title="[186]" Unit="" Internal="vars[186]" Type="F[]" Min="3.40282347e+38" Max="-3.40282347e+38"/>
    <Variable VarIndex="187" Expression="vars" Label="vars" Title="[187]" Unit="" Internal="vars[187]" Type="F[]" Min="3.40282347e+38" Max="-3.40282347e+38"/>
    <Variable VarIndex="188" Expression="vars" Label="vars" Title="[188]" Unit="" Internal="vars[188]" Type="F[]" Min="3.40282347e+38" Max="-3.40282347e+38"/>
    <Variable VarIndex="189" Expression="vars" Label="vars" Title="[189]" Unit="" Internal="vars[189]" Type="F[]" Min="3.40282347e+38" Max="-3.40282347e+38"/>
    <Variable VarIndex="190" Expression="vars" Label="vars" Title="[190]" Unit="" Internal="vars[190]" Type="F[]" Min="3.40282347e+38" Max="-3.40282347e+38"/>
    <Variable VarIndex="191" Expression="vars" Label="vars" Title="[191]" Unit="" Internal="vars[191]" Type="F[]" Min="3.40282347e+38" Max="-3.40282347e+38"/>
    <Variable VarIndex="192" Expression="vars" Label="vars" Title="[192]" Unit="" Internal="vars[192]" Type="F[]" Min="3.40282347e+38" Max="-3.40282347e+38"/>
    <Variable VarIndex="193" Expression="vars" Label="vars" Title="[193]" Unit="" Internal="vars[193]" Type="F[]" Min="3.40282347e+38" Max="-3.40282347e+38"/>
    <Variable VarIndex="194" Expression="vars" Label="vars" Title="[194]" Unit="" Internal="vars[194]" Type="F[]" Min="3.40282347e+38" Max="-3.40282347e+38"/>
    <Variable VarIndex="195" Expression="vars" Label="vars" Title="[195]" Unit="" Internal="vars[195]" Type="F[]" Min="3.40282347e+38" Max="-3.40282347e+38"/>
    <Variable VarIndex="196" Expression="vars" Label="vars" Title="[196]" Unit="" Internal="vars[196]" Type="F[]" Min="3.40282347e+38" Max="-3.40282347e+38"/>
    <Variable VarIndex="197" Expression="vars" Label="vars" Title="[197]" Unit="" Internal="vars[197]" Type="F[]" Min="3.40282347e+38" Max="-3.40282347e+38"/>
    <Variable VarIndex="198" Expression="vars" Label="vars" Title="[198]" Unit="" Internal="vars[198]" Type="F[]" Min="3.40282347e+38" Max="-3.40282347e+38"/>
    <Variable VarIndex="199" Expression="vars" Label="vars" Title="[199]" Unit="" Internal="vars[199]" Type="F[]" Min="3.40282347e+38" Max="-3.40282347e+38"/>
    <Variable VarIndex="200" Expression="vars" Label="vars" Title="[200]" Unit="" Internal="vars[200]" Type="F[]" Min="3.40282347e+38" Max="-3.40282347e+38"/>
    <Variable VarIndex="201" Expression="vars" Label="vars" Title="[201]" Unit="" Internal="vars[201]" Type="F[]" Min="3.40282347e+38" Max="-3.40282347e+38"/>
    <Variable VarIndex="202" Expression="vars" Label="vars" Title="[202]" Unit="" Internal="vars[202]" Type="F[]" Min="3.40282347e+38" Max="-3.40282347e+38"/>
    <Variable VarIndex="203" Expression="vars" Label="vars" Title="[203]" Unit="" Internal="vars[203]" Type="F[]" Min="3.40282347e+38" Max="-3.40282347e+38"/>
    <Variable VarIndex="204" Expression="vars" Label="vars" Title="[204]" Unit="" Internal="vars[204]" Type="F[]" Min="3.40282347e+38" Max="-3.40282347e+38"/>
    <Variable VarIndex="205" Expression="vars" Label="vars" Title="[205]" Unit="" Internal="vars[205]" Type="F[]" Min="3.40282347e+38" Max="-3.40282347e+38"/>
    <Variable VarIndex="206" Expression="vars" Label="vars" Title="[206]" Unit="" Internal="vars[206]" Type="F[]" Min="3.40282347e+38" Max="-3.40282347e+38"/>
    <Variable VarIndex="207" Expression="vars" Label="vars" Title="[207]" Unit="" Internal="vars[207]" Type="F[]" Min="3.40282347e+38" Max="-3.40282347e+38"/>
    <Variable VarIndex="208" Expression="vars" Label="vars" Title="[208]" Unit="" Internal="vars[208]" Type="F[]" Min="3.40282347e+38" Max="-3.40282347e+38"/>
    <Variable VarIndex="209" Expression="vars" Label="vars" Title="[209]" Unit="" Internal="vars[209]" Type="F[]" Min="3.40282347e+38" Max="-3.40282347e+38"/>
    <Variable VarIndex="210" Expression="vars" Label="vars" Title="[210]" Unit="" Internal="vars[210]" Type="F[]" Min="3.40282347e+38" Max="-3.40282347e+38"/>
    <Variable VarIndex="211" Expression="vars" Label="vars" Title="[211]" Unit="" Internal="vars[211]" Type="F[]" Min="3.40282347e+38" Max="-3.40282347e+38"/>
    <Variable VarIndex="212" Expression="vars" Label="vars" Title="[212]" Unit="" Internal="vars[212]" Type="F[]" Min="3.40282347e+38" Max="-3.40282347e+38"/>
    <Variable VarIndex="213" Expression="vars" Label="vars" Title="[213]" Unit="" Internal="vars[213]" Type="F[]" Min="3.40282347e+38" Max="-3.40282347e+38"/>
    <Variable VarIndex="214" Expression="vars" Label="vars" Title="[214]" Unit="" Internal="vars[214]" Type="F[]" Min="3.40282347e+38" Max="-3.40282347e+38"/>
    <Variable VarIndex="215" Expression="vars" Label="vars" Title="[215]" Unit="" Internal="vars[215]" Type="F[]" Min="3.40282347e+38" Max="-3.40282347e+38"/>
    <Variable VarIndex="216" Expression="vars" Label="vars" Title="[216]" Unit="" Internal="vars[216]" Type="F[]" Min="3.40282347e+38" Max="-3.40282347e+38"/>
    <Variable VarIndex="217" Expression="vars" Label="vars" Title="[217]" Unit="" Internal="vars[217]" Type="F[]" Min="3.40282347e+38" Max="-3.40282347e+38"/>
    <Variable VarIndex="218" Expression="vars" Label="vars" Title="[218]" Unit="" Internal="vars[218]" Type="F[]" Min="3.40282347e+38" Max="-3.40282347e+38"/>
    <Variable VarIndex="219" Expression="vars" Label="vars" Title="[219]" Unit="" Internal="vars[219]" Type="F[]" Min="3.40282347e+38" Max="-3.40282347e+38"/>
    <Variable VarIndex="220" Expression="vars" Label="vars" Title="[220]" Unit="" Internal="vars[220]" Type="F[]" Min="3.40282347e+38" Max="-3.40282347e+38"/>
    <Variable VarIndex="221" Expression="vars" Label="vars" Title="[221]" Unit="" Internal="vars[221]" Type="F[]" Min="3.40282347e+38" Max="-3.40282347e+38"/>
    <Variable VarIndex="222" Expression="vars" Label="vars" Title="[222]" Unit="" Internal="vars[222]" Type="F[]" Min="3.40282347e+38" Max="-3.40282347e+38"/>
    <Variable VarIndex="223" Expression="vars" Label="vars" Title="[223]" Unit="" Internal="vars[223]" Type="F[]" Min="3.40282347e+38" Max="-3.40282347e+38"/>
    <Variable VarIndex="224" Expression="vars" Label="vars" Title="[224]" Unit="" Internal="vars[224]" Type="F[]" Min="3.40282347e+38" Max="-3.40282347e+38"/>
    <Variable VarIndex="225" Expression="vars" Label="vars" Title="[225]" Unit="" Internal="vars[225]" Type="F[]" Min="3.40282347e+38" Max="-3.40282347e+38"/>
    <Variable VarIndex="226" Expression="vars" Label="vars" Title="[226]" Unit="" Internal="vars[226]" Type="F[]" Min="3.40282347e+38" Max="-3.40282347e+38"/>
    <Variable VarIndex="227" Expression="vars" Label="vars" Title="[227]" Unit="" Internal="vars[227]" Type="F[]" Min="3.40282347e+38" Max="-3.40282347e+38"/>
    <Variable VarIndex="228" Expression="vars" Label="vars" Title="[228]" Unit="" Internal="vars[228]" Type="F[]" Min="3.40282347e+38" Max="-3.40282347e+38"/>
    <Variable VarIndex="229" Expression="vars" Label="vars" Title="[229]" Unit="" Internal="vars[229]" Type="F[]" Min="3.40282347e+38" Max="-3.40282347e+38"/>
    <Variable VarIndex="230" Expression="vars" Label="vars" Title="[230]" Unit="" Internal="vars[230]" Type="F[]" Min="3.40282347e+38" Max="-3.40282347e+38"/>
    <Variable VarIndex="231" Expression="vars" Label="vars" Title="[231]" Unit="" Internal="vars[231]" Type="F[]" Min="3.40282347e+38" Max="-3.40282347e+38"/>
    <Variable VarIndex="232" Expression="vars" Label="vars" Title="[232]" Unit="" Internal="vars[232]" Type="F[]" Min="3.40282347e+38" Max="-3.40282347e+38"/>
    <Variable VarIndex="233" Expression="vars" Label="vars" Title="[233]" Unit="" Internal="vars[233]" Type="F[]" Min="3.40282347e+38" Max="-3.40282347e+38"/>
    <Variable VarIndex="234" Expression="vars" Label="vars" Title="[234]" Unit="" Internal="vars[234]" Type="F[]" Min="3.40282347e+38" Max="-3.40282347e+38"/>
    <Variable VarIndex="235" Expression="vars" Label="vars" Title="[235]" Unit="" Internal="vars[235]" Type="F[]" Min="3.40282347e+38" Max="-3.40282347e+38"/>
    <Variable VarIndex="236" Expression="vars" Label="vars" Title="[236]" Unit="" Internal="vars[236]" Type="F[]" Min="3.40282347e+38" Max="-3.40282347e+38"/>
    <Variable VarIndex="237" Expression="vars" Label="vars" Title="[237]" Unit="" Internal="vars[237]" Type="F[]" Min="3.40282347e+38" Max="-3.40282347e+38"/>
    <Variable VarIndex="238" Expression="vars" Label="vars" Title="[238]" Unit="" Internal="vars[238]" Type="F[]" Min="3.40282347e+38" Max="-3.40282347e+38"/>
    <Variable VarIndex="239" Expression="vars" Label="vars" Title="[239]" Unit="" Internal="vars[239]" Type="F[]" Min="3.40282347e+38" Max="-3.40282347e+38"/>
    <Variable VarIndex="240" Expression="vars" Label="vars" Title="[240]" Unit="" Internal="vars[240]" Type="F[]" Min="3.40282347e+38" Max="-3.40282347e+38"/>
    <Variable VarIndex="241" Expression="vars" Label="vars" Title="[241]" Unit="" Internal="vars[241]" Type="F[]" Min="3.40282347e+38" Max="-3.40282347e+38"/>
    <Variable VarIndex="242" Expression="vars" Label="vars" Title="[242]" Unit="" Internal="vars[242]" Type="F[]" Min="3.40282347e+38" Max="-3.40282347e+38"/>
    <Variable VarIndex="243" Expression="vars" Label="vars" Title="[243]" Unit="" Internal="vars[243]" Type="F[]" Min="3.40282347e+38" Max="-3.40282347e+38"/>
    <Variable VarIndex="244" Expression="vars" Label="vars" Title="[244]" Unit="" Internal="vars[244]" Type="F[]" Min="3.40282347e+38" Max="-3.40282347e+38"/>
    <Variable VarIndex="245" Expression="vars" Label="vars" Title="[245]" Unit="" Internal="vars[245]" Type="F[]" Min="3.40282347e+38" Max="-3.40282347e+38"/>
    <Variable VarIndex="246" Expression="vars" Label="vars" Title="[246]" Unit="" Internal="vars[246]" Type="F[]" Min="3.40282347e+38" Max="-3.40282347e+38"/>
    <Variable VarIndex="247" Expression="vars" Label="vars" Title="[247]" Unit="" Internal="vars[247]" Type="F[]" Min="3.40282347e+38" Max="-3.40282347e+38"/>
    <Variable VarIndex="248" Expression="vars" Label="vars" Title="[248]" Unit="" Internal="vars[248]" Type="F[]" Min="3.40282347e+38" Max="-3.40282347e+38"/>
    <Variable VarIndex="249" Expression="vars" Label="vars" Title="[249]" Unit="" Internal="vars[249]" Type="F[]" Min="3.40282347e+38" Max="-3.40282347e+38"/>
    <Variable VarIndex="250" Expression="vars" Label="vars" Title="[250]" Unit="" Internal="vars[250]" Type="F[]" Min="3.40282347e+38" Max="-3.40282347e+38"/>
    <Variable VarIndex="251" Expression="vars" Label="vars" Title="[251]" Unit="" Internal="vars[251]" Type="F[]" Min="3.40282347e+38" Max="-3.40282347e+38"/>
    <Variable VarIndex="252" Expression="vars" Label="vars" Title="[252]" Unit="" Internal="vars[252]" Type="F[]" Min="3.40282347e+38" Max="-3.40282347e+38"/>
    <Variable VarIndex="253" Expression="vars" Label="vars" Title="[253]" Unit="" Internal="vars[253]" Type="F[]" Min="3.40282347e+38" Max="-3.40282347e+38"/>
    <Variable VarIndex="254" Expression="vars" Label="vars" Title="[254]" Unit="" Internal="vars[254]" Type="F[]" Min="3.40282347e+38" Max="-3.40282347e+38"/>
    <Variable VarIndex="255" Expression="vars" Label="vars" Title="[255]" Unit="" Internal="vars[255]" Type="F[]" Min="3.40282347e+38" Max="-3.40282347e+38"/>
  </Variables>
  <Spectators NSpec="0"/>
  <Classes NClass="2">
    <Class Name="Signal" Index="0"/>
    <Class Name="Background" Index="1"/>
  </Classes>
  <Transformations NTransformations="0"/>
  <MVAPdfs/>
  <Weights NTrees="200" AnalysisType="0">
    <BinaryTree type="DecisionTree" boostWeight="2.2811871674079373e-01" itree="0">
      <Node pos="s" depth="0" NCoef="0" IVar="26" Cut="2.9087959289550781e+01" cType="0" res="-9.9000000000000000e+01" rms="0.0000000000000000e+00" purity="4.7030302882194519e-01" nType="0">
        <Node pos="l" depth="1" NCoef="0" IVar="215" Cut="2.7950038909912109e+01" cType="0" res="-9.9000000000000000e+01" rms="0.0000000000000000e+00" purity="5.6216216087341309e-01" nType="0">
          <Node pos="l" depth="2" NCoef="0" IVar="-1" Cut="0.0000000000000000e+00" cType="1" res="-9.9000000000000000e+01" rms="0.0000000000000000e+00" purity="6.7708331346511841e-01" nType="1"/>
          <Node pos="r" depth="2" NCoef="0" IVar="-1" Cut="0.0000000000000000e+00" cType="1" res="-9.9000000000000000e+01" rms="0.0000000000000000e+00" purity="4.3820226192474365e-01" nType="-1"/>
        </Node>
        <Node pos="r" depth="1" NCoef="0" IVar="-1" Cut="1.6749368667602539e+01" cType="1" res="-9.9000000000000000e+01" rms="0.0000000000000000e+00" purity="3.9560440182685852e-01" nType="-1"/>
      </Node>
    </BinaryTree>
    <BinaryTree type="DecisionTree" boostWeight="1.8475397947799968e-01" itree="1">
      <Node pos="s" depth="0" NCoef="0" IVar="39" Cut="2.2424373626708984e+01" cType="0" res="-9.9000000000000000e+01" rms="0.0000000000000000e+00" purity="5.1296269893646240e-01" nType="0">
        <Node pos="l" depth="1" NCoef="0" IVar="252" Cut="1.6756279468536377e+00" cType="0" res="-9.9000000000000000e+01" rms="0.0000000000000000e+00" purity="5.4768025875091553e-01" nType="0">
          <Node pos="l" depth="2" NCoef="0" IVar="-1" Cut="0.0000000000000000e+00" cType="1" res="-9.9000000000000000e+01" rms="0.0000000000000000e+00" purity="5.6739187240600586e-01" nType="1"/>
          <Node pos="r" depth="2" NCoef="0" IVar="-1" Cut="0.0000000000000000e+00" cType="1" res="-9.9000000000000000e+01" rms="0.0000000000000000e+00" purity="2.7729538083076477e-01" nType="-1"/>
        </Node>
        <Node pos="r" depth="1" NCoef="0" IVar="-1" Cut="5.4818801879882812e+00" cType="0" res="-9.9000000000000000e+01" rms="0.0000000000000000e+00" purity="3.4313628077507019e-01" nType="-1"/>
      </Node>
    </BinaryTree>
    <BinaryTree type="DecisionTree" boostWeight="2.0558943153841774e-01" itree="2">
      <Node pos="s" depth="0" NCoef="0" IVar="27" Cut="2.3770174026489258e+01" cType="0" res="-9.9000000000000000e+01" rms="0.0000000000000000e+00" purity="5.0580406188964844e-01" nType="0">
        <Node pos="l" depth="1" NCoef="0" IVar="126" Cut="5.3450443267822266e+01" cType="1" res="-9.9000000000000000e+01" rms="0.0000000000000000e+00" purity="5.9452432394027710e-01" nType="0">
          <Node pos="l" depth="2" NCoef="0" IVar="-1" Cut="0.0000000000000000e+00" cType="1" res="-9.9000000000000000e+01" rms="0.0000000000000000e+00" purity="6.4666086435317993e-01" nType="1"/>
          <Node pos="r" depth="2" NCoef="0" IVar="-1" Cut="0.0000000000000000e+00" cType="1" res="-9.9000000000000000e+01" rms="0.0000000000000000e+00" purity="4.4908955693244934e-01" nType="-1"/>
        </Node>
        <Node pos="r" depth="1" NCoef="0" IVar="-1" Cut="5.8833450317382812e+01" cType="0" res="-9.9000000000000000e+01" rms="0.0000000000000000e+00" purity="4.1836366057395935e-01" nType="-1"/>
      </Node>
    </BinaryTree>
    <BinaryTree type="DecisionTree" boostWeight="1.8383440540177329e-01" itree="3">
      <Node pos="s" depth="0" NCoef="0" IVar="23" Cut="2.2323034286499023e+01" cType="0" res="-9.9000000000000000e+01" rms="0.0000000000000000e+00" purity="5.2797931432723999e-01" nType="0">
        <Node pos="l" depth="1" NCoef="0" IVar="-1" Cut="3.7344440460205078e+01" cType="0" res="-9.9000000000000000e+01" rms="0.0000000000000000e+00" purity="5.8482939004898071e-01" nType="1"/>
        <Node pos="r" depth="1" NCoef="0" IVar="-1" Cut="3.7869651794433594e+01" cType="0" res="-9.9000000000000000e+01" rms="0.0000000000000000e+00" purity="3.9490488171577454e-01" nType="-1"/>
      </Node>
    </BinaryTree>
    <BinaryTree type="DecisionTree" boostWeight="2.6079406385679815e-01" itree="4">
      <Node pos="s" depth="0" NCoef="0" IVar="189" Cut="4.9213722229003906e+01" cType="1" res="-9.9000000000000000e+01" rms="0.0000000000000000e+00" purity="5.4643690586090088e-01" nType="0">
        <Node pos="l" depth="1" NCoef="0" IVar="-1" Cut="8.2429031372070312e+01" cType="0" res="-9.9000000000000000e+01" rms="0.0000000000000000e+00" purity="6.0168606042861938e-01" nType="1"/>
        <Node pos="r" depth="1" NCoef="0" IVar="97" Cut="8.1230621337890625e+00" cType="1" res="-9.9000000000000000e+01" rms="0.0000000000000000e+00" purity="3.2529222965240479e-01" nType="0">
          <Node pos="l" depth="2" NCoef="0" IVar="-1" Cut="0.0000000000000000e+00" cType="1" res="-9.9000000000000000e+01" rms="0.0000000000000000e+00" purity="6.5656787157058716e-01" nType="1"/>
          <Node pos="r" depth="2" NCoef="0" IVar="-1" Cut="0.0000000000000000e+00" cType="1" res="-9.9000000000000000e+01" rms="0.0000000000000000e+00" purity="2.5281232595443726e-01" nType="-1"/>
        </Node>
      </Node>
    </BinaryTree>
    <BinaryTree type="DecisionTree" boostWeight="1.8846345332123976e-01" itree="5">
      <Node pos="s" depth="0" NCoef="0" IVar="130" Cut="2.3375978469848633e+01" cType="1" res="-9.9000000000000000e+01" rms="0.0000000000000000e+00" purity="4.8064535856246948e-01" nType="0">
        <Node pos="l" depth="1" NCoef="0" IVar="110" Cut="5.9826248168945312e+01" cType="1" res="-9.9000000000000000e+01" rms="0.0000000000000000e+00" purity="6.4911234378814697e-01" nType="0">
          <Node pos="l" depth="2" NCoef="0" IVar="-1" Cut="0.0000000000000000e+00" cType="1" res="-9.9000000000000000e+01" rms="0.0000000000000000e+00" purity="7.5786489248275757e-01" nType="1"/>
          <Node pos="r" depth="2" NCoef="0" IVar="-1" Cut="0.0000000000000000e+00" cType="1" res="-9.9000000000000000e+01" rms="0.0000000000000000e+00" purity="4.4040825963020325e-01" nType="-1"/>
        </Node>
        <Node pos="r" depth="1" NCoef="0" IVar="142" Cut="3.1701076507568359e+01" cType="1" res="-9.9000000000000000e+01" rms="0.0000000000000000e+00" purity="4.3502363562583923e-01" nType="0">
          <Node pos="l" depth="2" NCoef="0" IVar="-1" Cut="0.0000000000000000e+00" cType="1" res="-9.9000000000000000e+01" rms="0.0000000000000000e+00" purity="5.0151622295379639e-01" nType="1"/>
          <Node pos="r" depth="2" NCoef="0" IVar="-1" Cut="0.0000000000000000e+00" cType="1" res="-9.9000000000000000e+01" rms="0.0000000000000000e+00" purity="3.1714549660682678e-01" nType="-1"/>
        </Node>
      </Node>
    </BinaryTree>
    <BinaryTree type="DecisionTree" boostWeight="1.8344012367954768e-01" itree="6">
      <Node pos="s" depth="0" NCoef="0" IVar="5" Cut="5.5555900573730469e+01" cType="0" res="-9.9000000000000000e+01" rms="0.0000000000000000e+00" purity="4.8283579945564270e-01" nType="0">
        <Node pos="l" depth="1" NCoef="0" IVar="-1" Cut="0.0000000000000000e+00" cType="1" res="-9.9000000000000000e+01" rms="0.0000000000000000e+00" purity="7.9806905984878540e-01" nType="1"/>
        <Node pos="r" depth="1" NCoef="0" IVar="217" Cut="4.5493465423583984e+01" cType="0" res="-9.9000000000000000e+01" rms="0.0000000000000000e+00" purity="4.6890610456466675e-01" nType="0">
          <Node pos="l" depth="2" NCoef="0" IVar="-1" Cut="0.0000000000000000e+00" cType="1" res="-9.9000000000000000e+01" rms="0.0000000000000000e+00" purity="5.5642670392990112e-01" nType="1"/>
          <Node pos="r" depth="2" NCoef="0" IVar="-1" Cut="0.0000000000000000e+00" cType="1" res="-9.9000000000000000e+01" rms="0.0000000000000000e+00" purity="3.9815554022789001e-01" nType="-1"/>
        </Node>
      </Node>
    </BinaryTree>
    <BinaryTree type="DecisionTree" boostWeight="1.8121636276647002e-01" itree="7">
      <Node pos="s" depth="0" NCoef="0" IVar="251" Cut="3.8339595794677734e+01" cType="0" res="-9.9000000000000000e+01" rms="0.0000000000000000e+00" purity="4.9255979061126709e-01" nType="0">
        <Node pos="l" depth="1" NCoef="0" IVar="173" Cut="6.0619518280029297e+01" cType="1" res="-9.9000000000000000e+01" rms="0.0000000000000000e+00" purity="6.4630812406539917e-01" nType="0">
          <Node pos="l" depth="2" NCoef="0" IVar="-1" Cut="0.0000000000000000e+00" cType="1" res="-9.9000000000000000e+01" rms="0.0000000000000000e+00" purity="7.9354822635650635e-01" nType="1"/>
          <Node pos="r" depth="2" NCoef="0" IVar="-1" Cut="0.0000000000000000e+00" cType="1" res="-9.9000000000000000e+01" rms="0.0000000000000000e+00" purity="4.1513326764106750e-01" nType="-1"/>
        </Node>
        <Node pos="r" depth="1" NCoef="0" IVar="7" Cut="1.9031049728393555e+01" cType="0" res="-9.9000000000000000e+01" rms="0.0000000000000000e+00" purity="4.5766153931617737e-01" nType="0">
          <Node pos="l" depth="2" NCoef="0" IVar="-1" Cut="0.0000000000000000e+00" cType="1" res="-9.9000000000000000e+01" rms="0.0000000000000000e+00" purity="5.1303839683532715e-01" nType="1"/>
          <Node pos="r" depth="2" NCoef="0" IVar="-1" Cut="0.0000000000000000e+00" cType="1" res="-9.9000000000000000e+01" rms="0.0000000000000000e+00" purity="2.9561996459960938e-01" nType="-1"/>
        </Node>
      </Node>
    </BinaryTree>
    <BinaryTree type="DecisionTree" boostWeight="1.8304690591642608e-01" itree="8">
      <Node pos="s" depth="0" NCoef="0" IVar="116" Cut="3.8298477172851562e+01" cType="1" res="-9.9000000000000000e+01" rms="0.0000000000000000e+00" purity="4.6172630786895752e-01" nType="0">
        <Node pos="l" depth="1" NCoef="0" IVar="17" Cut="7.7875685691833496e+00" cType="1" res="-9.9000000000000000e+01" rms="0.0000000000000000e+00" purity="6.7049050331115723e-01" nType="0">
          <Node pos="l" depth="2" NCoef="0" IVar="-1" Cut="0.0000000000000000e+00" cType="1" res="-9.9000000000000000e+01" rms="0.0000000000000000e+00" purity="7.9987668991088867e-01" nType="1"/>
          <Node pos="r" depth="2" NCoef="0" IVar="-1" Cut="0.0000000000000000e+00" cType="1" res="-9.9000000000000000e+01" rms="0.0000000000000000e+00" purity="4.8863118886947632e-01" nType="-1"/>
        </Node>
        <Node pos="r" depth="1" NCoef="0" IVar="-1" Cut="6.6981414794921875e+01" cType="1" res="-9.9000000000000000e+01" rms="0.0000000000000000e+00" purity="4.2515233159065247e-01" nType="-1"/>
      </Node>
    </BinaryTree>
    <BinaryTree type="DecisionTree" boostWeight="2.1733564491304722e-01" itree="9">
      <Node pos="s" depth="0" NCoef="0" IVar="164" Cut="3.5901912689208984e+01" cType="1" res="-9.9000000000000000e+01" rms="0.0000000000000000e+00" purity="4.9298802018165588e-01" nType="0">
        <Node pos="l" depth="1" NCoef="0" IVar="61" Cut="6.7326889038085938e+01" cType="1" res="-9.9000000000000000e+01" rms="0.0000000000000000e+00" purity="6.5493565797805786e-01" nType="0">
          <Node pos="l" depth="2" NCoef="0" IVar="-1" Cut="0.0000000000000000e+00" cType="1" res="-9.9000000000000000e+01" rms="0.0000000000000000e+00" purity="7.3450410366058350e-01" nType="1"/>
          <Node pos="r" depth="2" NCoef="0" IVar="-1" Cut="0.0000000000000000e+00" cType="1" res="-9.9000000000000000e+01" rms="0.0000000000000000e+00" purity="3.1643056869506836e-01" nType="-1"/>
        </Node>
        <Node pos="r" depth="1" NCoef="0" IVar="143" Cut="1.8787889480590820e+01" cType="1" res="-9.9000000000000000e+01" rms="0.0000000000000000e+00" purity="4.5573285222053528e-01" nType="0">
          <Node pos="l" depth="2" NCoef="0" IVar="-1" Cut="0.0000000000000000e+00" cType="1" res="-9.9000000000000000e+01" rms="0.0000000000000000e+00" purity="5.3414243459701538e-01" nType="1"/>
          <Node pos="r" depth="2" NCoef="0" IVar="-1" Cut="0.0000000000000000e+00" cType="1" res="-9.9000000000000000e+01" rms="0.0000000000000000e+00" purity="3.7024345993995667e-01" nType="-1"/>
        </Node>
      </Node>
    </BinaryTree>
    <BinaryTree type="DecisionTree" boostWeight="2.8948146436703037e-01" itree="10">
      <Node pos="s" depth="0" NCoef="0" IVar="81" Cut="2.3515439987182617e+01" cType="1" res="-9.9000000000000000e+01" rms="0.0000000000000000e+00" purity="4.6981778740882874e-01" nType="0">
        <Node pos="l" depth="1" NCoef="0" IVar="233" Cut="1.4659991264343262e+01" cType="0" res="-9.9000000000000000e+01" rms="0.0000000000000000e+00" purity="5.8246445655822754e-01" nType="0">
          <Node pos="l" depth="2" NCoef="0" IVar="-1" Cut="0.0000000000000000e+00" cType="1" res="-9.9000000000000000e+01" rms="0.0000000000000000e+00" purity="6.1585891246795654e-01" nType="1"/>
          <Node pos="r" depth="2" NCoef="0" IVar="-1" Cut="0.0000000000000000e+00" cType="1" res="-9.9000000000000000e+01" rms="0.0000000000000000e+00" purity="2.0860604941844940e-01" nType="-1"/>
        </Node>
        <Node pos="r" depth="1" NCoef="0" IVar="142" Cut="1.1961210250854492e+01" cType="1" res="-9.9000000000000000e+01" rms="0.0000000000000000e+00" purity="3.9838787913322449e-01" nType="0">
          <Node pos="l" depth="2" NCoef="0" IVar="-1" Cut="0.0000000000000000e+00" cType="1" res="-9.9000000000000000e+01" rms="0.0000000000000000e+00" purity="6.5161687135696411e-01" nType="1"/>
          <Node pos="r" depth="2" NCoef="0" IVar="-1" Cut="0.0000000000000000e+00" cType="1" res="-9.9000000000000000e+01" rms="0.0000000000000000e+00" purity="3.5319340229034424e-01" nType="-1"/>
        </Node>
      </Node>
    </BinaryTree>
    <BinaryTree type="DecisionTree" boostWeight="1.6686736745199077e-01" itree="11">
      <Node pos="s" depth="0" NCoef="0" IVar="100" Cut="8.3327125549316406e+01" cType="1" res="-9.9000000000000000e+01" rms="0.0000000000000000e+00" purity="4.7685605287551880e-01" nType="0">
        <Node pos="l" depth="1" NCoef="0" IVar="116" Cut="4.2452648162841797e+01" cType="1" res="-9.9000000000000000e+01" rms="0.0000000000000000e+00" purity="5.1009172201156616e-01" nType="0">
          <Node pos="l" depth="2" NCoef="0" IVar="-1" Cut="0.0000000000000000e+00" cType="1" res="-9.9000000000000000e+01" rms="0.0000000000000000e+00" purity="6.3407862186431885e-01" nType="1"/>
          <Node pos="r" depth="2" NCoef="0" IVar="-1" Cut="0.0000000000000000e+00" cType="1" res="-9.9000000000000000e+01" rms="0.0000000000000000e+00" purity="4.7027823328971863e-01" nType="-1"/>
        </Node>
        <Node pos="r" depth="1" NCoef="0" IVar="52" Cut="7.5118034362792969e+01" cType="0" res="-9.9000000000000000e+01" rms="0.0000000000000000e+00" purity="2.5127601623535156e-01" nType="0">
          <Node pos="l" depth="2" NCoef="0" IVar="-1" Cut="0.0000000000000000e+00" cType="1" res="-9.9000000000000000e+01" rms="0.0000000000000000e+00" purity="5.4111629724502563e-01" nType="1"/>
          <Node pos="r" depth="2" NCoef="0" IVar="-1" Cut="0.0000000000000000e+00" cType="1" res="-9.9000000000000000e+01" rms="0.0000000000000000e+00" purity="1.5095558762550354e-01" nType="-1"/>
        </Node>
      </Node>
    </BinaryTree>
    <BinaryTree type="DecisionTree" boostWeight="1.8567678119332331e-01" itree="12">
      <Node pos="s" depth="0" NCoef="0" IVar="110" Cut="1.5544334411621094e+01" cType="1" res="-9.9000000000000000e+01" rms="0.0000000000000000e+00" purity="4.6691092848777771e-01" nType="0">
        <Node pos="l" depth="1" NCoef="0" IVar="112" Cut="4.6104038238525391e+01" cType="1" res="-9.9000000000000000e+01" rms="0.0000000000000000e+00" purity="6.1626189947128296e-01" nType="0">
          <Node pos="l" depth="2" NCoef="0" IVar="-1" Cut="0.0000000000000000e+00" cType="1" res="-9.9000000000000000e+01" rms="0.0000000000000000e+00" purity="7.2920256853103638e-01" nType="1"/>
          <Node pos="r" depth="2" NCoef="0" IVar="-1" Cut="0.0000000000000000e+00" cType="1" res="-9.9000000000000000e+01" rms="0.0000000000000000e+00" purity="4.5484060049057007e-01" nType="-1"/>
        </Node>
        <Node pos="r" depth="1" NCoef="0" IVar="-1" Cut="8.8816375732421875e+01" cType="1" res="-9.9000000000000000e+01" rms="0.0000000000000000e+00" purity="4.2536503076553345e-01" nType="-1"/>
      </Node>
    </BinaryTree>
    <BinaryTree type="DecisionTree" boostWeight="8.8902682310992076e-02" itree="13">
      <Node pos="s" depth="0" NCoef="0" IVar="19" Cut="4.8113307952880859e+00" cType="0" res="-9.9000000000000000e+01" rms="0.0000000000000000e+00" purity="5.1236099004745483e-01" nType="0">
        <Node pos="l" depth="1" NCoef="0" IVar="-1" Cut="1.1661128997802734e+00" cType="1" res="-9.9000000000000000e+01" rms="0.0000000000000000e+00" purity="5.3002196550369263e-01" nType="1"/>
        <Node pos="r" depth="1" NCoef="0" IVar="-1" Cut="1.5928465843200684e+01" cType="1" res="-9.9000000000000000e+01" rms="0.0000000000000000e+00" purity="2.1332053840160370e-01" nType="-1"/>
      </Node>
    </BinaryTree>
    <BinaryTree type="DecisionTree" boostWeight="1.2179173108856944e-01" itree="14">
      <Node pos="s" depth="0" NCoef="0" IVar="25" Cut="9.6577138900756836e+00" cType="0" res="-9.9000000000000000e+01" rms="0.0000000000000000e+00" purity="4.8059186339378357e-01" nType="0">
        <Node pos="l" depth="1" NCoef="0" IVar="117" Cut="9.8606590270996094e+01" cType="1" res="-9.9000000000000000e+01" rms="0.0000000000000000e+00" purity="5.0448024272918701e-01" nType="0">
          <Node pos="l" depth="2" NCoef="0" IVar="-1" Cut="0.0000000000000000e+00" cType="1" res="-9.9000000000000000e+01" rms="0.0000000000000000e+00" purity="5.2375894784927368e-01" nType="1"/>
          <Node pos="r" depth="2" NCoef="0" IVar="-1" Cut="0.0000000000000000e+00" cType="1" res="-9.9000000000000000e+01" rms="0.0000000000000000e+00" purity="1.6460713744163513e-01" nType="-1"/>
        </Node>
        <Node pos="r" depth="1" NCoef="0" IVar="-1" Cut="8.3379814147949219e+01" cType="0" res="-9.9000000000000000e+01" rms="0.0000000000000000e+00" purity="2.2020982205867767e-01" nType="-1"/>
      </Node>
    </BinaryTree>
    <BinaryTree type="DecisionTree" boostWeight="2.8644378656391639e-01" itree="15">
      <Node pos="s" depth="0" NCoef="0" IVar="141" Cut="5.7862590789794922e+01" cType="1" res="-9.9000000000000000e+01" rms="0.0000000000000000e+00" purity="4.5673784613609314e-01" nType="0">
        <Node pos="l" depth="1" NCoef="0" IVar="114" Cut="4.6265964508056641e+01" cType="1" res="-9.9000000000000000e+01" rms="0.0000000000000000e+00" purity="4.9890285730361938e-01" nType="0">
          <Node pos="l" depth="2" NCoef="0" IVar="-1" Cut="0.0000000000000000e+00" cType="1" res="-9.9000000000000000e+01" rms="0.0000000000000000e+00" purity="6.2592196464538574e-01" nType="1"/>
          <Node pos="r" depth="2" NCoef="0" IVar="-1" Cut="0.0000000000000000e+00" cType="1" res="-9.9000000000000000e+01" rms="0.0000000000000000e+00" purity="3.9914995431900024e-01" nType="-1"/>
        </Node>
        <Node pos="r" depth="1" NCoef="0" IVar="186" Cut="9.1950874328613281e+01" cType="0" res="-9.9000000000000000e+01" rms="0.0000000000000000e+00" purity="3.1646847724914551e-01" nType="0">
          <Node pos="l" depth="2" NCoef="0" IVar="-1" Cut="0.0000000000000000e+00" cType="1" res="-9.9000000000000000e+01" rms="0.0000000000000000e+00" purity="6.9994598627090454e-01" nType="1"/>
          <Node pos="r" depth="2" NCoef="0" IVar="-1" Cut="0.0000000000000000e+00" cType="1" res="-9.9000000000000000e+01" rms="0.0000000000000000e+00" purity="2.6471740007400513e-01" nType="-1"/>
        </Node>
      </Node>
    </BinaryTree>
    <BinaryTree type="DecisionTree" boostWeight="2.4884375510276252e-01" itree="16">
      <Node pos="s" depth="0" NCoef="0" IVar="175" Cut="1.8566816329956055e+01" cType="1" res="-9.9000000000000000e+01" rms="0.0000000000000000e+00" purity="4.8470127582550049e-01" nType="0">
        <Node pos="l" depth="1" NCoef="0" IVar="249" Cut="1.0002219200134277e+01" cType="0" res="-9.9000000000000000e+01" rms="0.0000000000000000e+00" purity="5.8124929666519165e-01" nType="0">
          <Node pos="l" depth="2" NCoef="0" IVar="-1" Cut="0.0000000000000000e+00" cType="1" res="-9.9000000000000000e+01" rms="0.0000000000000000e+00" purity="6.3948619365692139e-01" nType="1"/>
          <Node pos="r" depth="2" NCoef="0" IVar="-1" Cut="0.0000000000000000e+00" cType="1" res="-9.9000000000000000e+01" rms="0.0000000000000000e+00" purity="3.6117500066757202e-01" nType="-1"/>
        </Node>
        <Node pos="r" depth="1" NCoef="0" IVar="165" Cut="5.3566722869873047e+01" cType="1" res="-9.9000000000000000e+01" rms="0.0000000000000000e+00" purity="3.9798012375831604e-01" nType="0">
          <Node pos="l" depth="2" NCoef="0" IVar="-1" Cut="0.0000000000000000e+00" cType="1" res="-9.9000000000000000e+01" rms="0.0000000000000000e+00" purity="5.0440883636474609e-01" nType="1"/>
          <Node pos="r" depth="2" NCoef="0" IVar="-1" Cut="0.0000000000000000e+00" cType="1" res="-9.9000000000000000e+01" rms="0.0000000000000000e+00" purity="2.9948860406875610e-01" nType="-1"/>
        </Node>
      </Node>
    </BinaryTree>
    <BinaryTree type="DecisionTree" boostWeight="1.7304162861383132e-01" itree="17">
      <Node pos="s" depth="0" NCoef="0" IVar="95" Cut="2.0165710449218750e+00" cType="1" res="-9.9000000000000000e+01" rms="0.0000000000000000e+00" purity="4.8119235038757324e-01" nType="0">
        <Node pos="l" depth="1" NCoef="0" IVar="-1" Cut="0.0000000000000000e+00" cType="1" res="-9.9000000000000000e+01" rms="0.0000000000000000e+00" purity="8.9123302698135376e-01" nType="1"/>
        <Node pos="r" depth="1" NCoef="0" IVar="24" Cut="6.1671878814697266e+01" cType="0" res="-9.9000000000000000e+01" rms="0.0000000000000000e+00" purity="4.6598637104034424e-01" nType="0">
          <Node pos="l" depth="2" NCoef="0" IVar="-1" Cut="0.0000000000000000e+00" cType="1" res="-9.9000000000000000e+01" rms="0.0000000000000000e+00" purity="6.8100017309188843e-01" nType="1"/>
          <Node pos="r" depth="2" NCoef="0" IVar="-1" Cut="0.0000000000000000e+00" cType="1" res="-9.9000000000000000e+01" rms="0.0000000000000000e+00" purity="4.3903449177742004e-01" nType="-1"/>
        </Node>
      </Node>
    </BinaryTree>
    <BinaryTree type="DecisionTree" boostWeight="2.0130298152487003e-01" itree="18">
      <Node pos="s" depth="0" NCoef="0" IVar="24" Cut="1.1387495040893555e+01" cType="0" res="-9.9000000000000000e+01" rms="0.0000000000000000e+00" purity="5.1395285129547119e-01" nType="0">
        <Node pos="l" depth="1" NCoef="0" IVar="233" Cut="3.2825088500976562e+01" cType="0" res="-9.9000000000000000e+01" rms="0.0000000000000000e+00" purity="5.3347498178482056e-01" nType="0">
          <Node pos="l" depth="2" NCoef="0" IVar="-1" Cut="0.0000000000000000e+00" cType="1" res="-9.9000000000000000e+01" rms="0.0000000000000000e+00" purity="6.3032901287078857e-01" nType="1"/>
          <Node pos="r" depth="2" NCoef="0" IVar="-1" Cut="0.0000000000000000e+00" cType="1" res="-9.9000000000000000e+01" rms="0.0000000000000000e+00" purity="4.5087632536888123e-01" nType="-1"/>
        </Node>
        <Node pos="r" depth="1" NCoef="0" IVar="-1" Cut="1.5869726181030273e+01" cType="0" res="-9.9000000000000000e+01" rms="0.0000000000000000e+00" purity="1.8438760936260223e-01" nType="-1"/>
      </Node>
    </BinaryTree>
    <BinaryTree type="DecisionTree" boostWeight="1.9995021961541926e-01" itree="19">
      <Node pos="s" depth="0" NCoef="0" IVar="155" Cut="3.9878517150878906e+01" cType="1" res="-9.9000000000000000e+01" rms="0.0000000000000000e+00" purity="5.2605581283569336e-01" nType="0">
        <Node pos="l" depth="1" NCoef="0" IVar="-1" Cut="4.9351019859313965e+00" cType="1" res="-9.9000000000000000e+01" rms="0.0000000000000000e+00" purity="6.7403328418731689e-01" nType="1"/>
        <Node pos="r" depth="1" NCoef="0" IVar="145" Cut="1.2478153228759766e+01" cType="1" res="-9.9000000000000000e+01" rms="0.0000000000000000e+00" purity="4.8636198043823242e-01" nType="0">
          <Node pos="l" depth="2" NCoef="0" IVar="-1" Cut="0.0000000000000000e+00" cType="1" res="-9.9000000000000000e+01" rms="0.0000000000000000e+00" purity="7.0598173141479492e-01" nType="1"/>
          <Node pos="r" depth="2" NCoef="0" IVar="-1" Cut="0.0000000000000000e+00" cType="1" res="-9.9000000000000000e+01" rms="0.0000000000000000e+00" purity="4.4536238908767700e-01" nType="-1"/>
        </Node>
      </Node>
    </BinaryTree>
    <BinaryTree type="DecisionTree" boostWeight="1.5604999977023518e-01" itree="20">
      <Node pos="s" depth="0" NCoef="0" IVar="190" Cut="4.5532821655273438e+01" cType="1" res="-9.9000000000000000e+01" rms="0.0000000000000000e+00" purity="4.8973798751831055e-01" nType="0">
        <Node pos="l" depth="1" NCoef="0" IVar="145" Cut="1.8154685974121094e+01" cType="1" res="-9.9000000000000000e+01" rms="0.0000000000000000e+00" purity="5.3140902519226074e-01" nType="0">
          <Node pos="l" depth="2" NCoef="0" IVar="-1" Cut="0.0000000000000000e+00" cType="1" res="-9.9000000000000000e+01" rms="0.0000000000000000e+00" purity="7.3710650205612183e-01" nType="1"/>
          <Node pos="r" depth="2" NCoef="0" IVar="-1" Cut="0.0000000000000000e+00" cType="1" res="-9.9000000000000000e+01" rms="0.0000000000000000e+00" purity="4.8891308903694153e-01" nType="-1"/>
        </Node>
        <Node pos="r" depth="1" NCoef="0" IVar="-1" Cut="4.2441744804382324e+00" cType="1" res="-9.9000000000000000e+01" rms="0.0000000000000000e+00" purity="2.9075354337692261e-01" nType="-1"/>
      </Node>
    </BinaryTree>
    <BinaryTree type="DecisionTree" boostWeight="2.7241260072074613e-01" itree="21">
      <Node pos="s" depth="0" NCoef="0" IVar="172" Cut="5.1049999237060547e+01" cType="1" res="-9.9000000000000000e+01" rms="0.0000000000000000e+00" purity="5.2909117937088013e-01" nType="0">
        <Node pos="l" depth="1" NCoef="0" IVar="129" Cut="6.2753036499023438e+01" cType="1" res="-9.9000000000000000e+01" rms="0.0000000000000000e+00" purity="5.8667445182800293e-01" nType="0">
          <Node pos="l" depth="2" NCoef="0" IVar="-1" Cut="0.0000000000000000e+00" cType="1" res="-9.9000000000000000e+01" rms="0.0000000000000000e+00" purity="6.2838208675384521e-01" nType="1"/>
          <Node pos="r" depth="2" NCoef="0" IVar="-1" Cut="0.0000000000000000e+00" cType="1" res="-9.9000000000000000e+01" rms="0.0000000000000000e+00" purity="2.8892359137535095e-01" nType="-1"/>
        </Node>
        <Node pos="r" depth="1" NCoef="0" IVar="106" Cut="9.7100677490234375e+01" cType="0" res="-9.9000000000000000e+01" rms="0.0000000000000000e+00" purity="4.2717012763023376e-01" nType="0">
          <Node pos="l" depth="2" NCoef="0" IVar="-1" Cut="0.0000000000000000e+00" cType="1" res="-9.9000000000000000e+01" rms="0.0000000000000000e+00" purity="7.7676498889923096e-01" nType="1"/>
          <Node pos="r" depth="2" NCoef="0" IVar="-1" Cut="0.0000000000000000e+00" cType="1" res="-9.9000000000000000e+01" rms="0.0000000000000000e+00" purity="3.9231982827186584e-01" nType="-1"/>
        </Node>
      </Node>
    </BinaryTree>
    <BinaryTree type="DecisionTree" boostWeight="2.5355301479607756e-01" itree="22">
      <Node pos="s" depth="0" NCoef="0" IVar="114" Cut="5.6687019348144531e+01" cType="1" res="-9.9000000000000000e+01" rms="0.0000000000000000e+00" purity="5.4927766323089600e-01" nType="0">
        <Node pos="l" depth="1" NCoef="0" IVar="-1" Cut="1.4750510215759277e+01" cType="1" res="-9.9000000000000000e+01" rms="0.0000000000000000e+00" purity="6.0357743501663208e-01" nType="1"/>
        <Node pos="r" depth="1" NCoef="0" IVar="95" Cut="3.2035388946533203e+00" cType="1" res="-9.9000000000000000e+01" rms="0.0000000000000000e+00" purity="4.0903463959693909e-01" nType="0">
          <Node pos="l" depth="2" NCoef="0" IVar="-1" Cut="0.0000000000000000e+00" cType="1" res="-9.9000000000000000e+01" rms="0.0000000000000000e+00" purity="7.1908390522003174e-01" nType="1"/>
          <Node pos="r" depth="2" NCoef="0" IVar="-1" Cut="0.0000000000000000e+00" cType="1" res="-9.9000000000000000e+01" rms="0.0000000000000000e+00" purity="3.3305802941322327e-01" nType="-1"/>
        </Node>
      </Node>
    </BinaryTree>
    <BinaryTree type="DecisionTree" boostWeight="2.6149233754554663e-01" itree="23">
      <Node pos="s" depth="0" NCoef="0" IVar="248" Cut="1.1051983833312988e+01" cType="0" res="-9.9000000000000000e+01" rms="0.0000000000000000e+00" purity="5.2172732353210449e-01" nType="0">
        <Node pos="l" depth="1" NCoef="0" IVar="9" Cut="1.0432024002075195e+01" cType="0" res="-9.9000000000000000e+01" rms="0.0000000000000000e+00" purity="5.6042224168777466e-01" nType="0">
          <Node pos="l" depth="2" NCoef="0" IVar="-1" Cut="0.0000000000000000e+00" cType="1" res="-9.9000000000000000e+01" rms="0.0000000000000000e+00" purity="6.0573291778564453e-01" nType="1"/>
          <Node pos="r" depth="2" NCoef="0" IVar="-1" Cut="0.0000000000000000e+00" cType="1" res="-9.9000000000000000e+01" rms="0.0000000000000000e+00" purity="3.5659942030906677e-01" nType="-1"/>
        </Node>
        <Node pos="r" depth="1" NCoef="0" IVar="237" Cut="9.6460533142089844e+00" cType="0" res="-9.9000000000000000e+01" rms="0.0000000000000000e+00" purity="3.2595100998878479e-01" nType="0">
          <Node pos="l" depth="2" NCoef="0" IVar="-1" Cut="0.0000000000000000e+00" cType="1" res="-9.9000000000000000e+01" rms="0.0000000000000000e+00" purity="5.3905522823333740e-01" nType="1"/>
          <Node pos="r" depth="2" NCoef="0" IVar="-1" Cut="0.0000000000000000e+00" cType="1" res="-9.9000000000000000e+01" rms="0.0000000000000000e+00" purity="1.8562319874763489e-01" nType="-1"/>
        </Node>
      </Node>
    </BinaryTree>
    <BinaryTree type="DecisionTree" boostWeight="2.1392876879174869e-01" itree="24">
      <Node pos="s" depth="0" NCoef="0" IVar="137" Cut="8.0433563232421875e+01" cType="1" res="-9.9000000000000000e+01" rms="0.0000000000000000e+00" purity="4.7491723299026489e-01" nType="0">
        <Node pos="l" depth="1" NCoef="0" IVar="205" Cut="1.1868535041809082e+01" cType="1" res="-9.9000000000000000e+01" rms="0.0000000000000000e+00" purity="5.3320068120956421e-01" nType="0">
          <Node pos="l" depth="2" NCoef="0" IVar="-1" Cut="0.0000000000000000e+00" cType="1" res="-9.9000000000000000e+01" rms="0.0000000000000000e+00" purity="6.9732868671417236e-01" nType="1"/>
          <Node pos="r" depth="2" NCoef="0" IVar="-1" Cut="0.0000000000000000e+00" cType="1" res="-9.9000000000000000e+01" rms="0.0000000000000000e+00" purity="4.7873568534851074e-01" nType="-1"/>
        </Node>
        <Node pos="r" depth="1" NCoef="0" IVar="103" Cut="5.2127914428710938e+01" cType="1" res="-9.9000000000000000e+01" rms="0.0000000000000000e+00" purity="3.5743647813796997e-01" nType="0">
          <Node pos="l" depth="2" NCoef="0" IVar="-1" Cut="0.0000000000000000e+00" cType="1" res="-9.9000000000000000e+01" rms="0.0000000000000000e+00" purity="6.9090652465820312e-01" nType="1"/>
          <Node pos="r" depth="2" NCoef="0" IVar="-1" Cut="0.0000000000000000e+00" cType="1" res="-9.9000000000000000e+01" rms="0.0000000000000000e+00" purity="3.1412774324417114e-01" nType="-1"/>
        </Node>
      </Node>
    </BinaryTree>
    <BinaryTree type="DecisionTree" boostWeight="2.2164816913792573e-01" itree="25">
      <Node pos="s" depth="0" NCoef="0" IVar="233" Cut="1.4543755531311035e+01" cType="0" res="-9.9000000000000000e+01" rms="0.0000000000000000e+00" purity="5.1632440090179443e-01" nType="0">
        <Node pos="l" depth="1" NCoef="0" IVar="102" Cut="6.5909629821777344e+01" cType="0" res="-9.9000000000000000e+01" rms="0.0000000000000000e+00" purity="5.4836213588714600e-01" nType="0">
          <Node pos="l" depth="2" NCoef="0" IVar="-1" Cut="0.0000000000000000e+00" cType="1" res="-9.9000000000000000e+01" rms="0.0000000000000000e+00" purity="6.1235439777374268e-01" nType="1"/>
          <Node pos="r" depth="2" NCoef="0" IVar="-1" Cut="0.0000000000000000e+00" cType="1" res="-9.9000000000000000e+01" rms="0.0000000000000000e+00" purity="4.6166446805000305e-01" nType="-1"/>
        </Node>
        <Node pos="r" depth="1" NCoef="0" IVar="22" Cut="6.3222644805908203e+01" cType="0" res="-9.9000000000000000e+01" rms="0.0000000000000000e+00" purity="3.0278840661048889e-01" nType="0">
          <Node pos="l" depth="2" NCoef="0" IVar="-1" Cut="0.0000000000000000e+00" cType="1" res="-9.9000000000000000e+01" rms="0.0000000000000000e+00" purity="7.1418190002441406e-01" nType="1"/>
          <Node pos="r" depth="2" NCoef="0" IVar="-1" Cut="0.0000000000000000e+00" cType="1" res="-9.9000000000000000e+01" rms="0.0000000000000000e+00" purity="1.7868466675281525e-01" nType="-1"/>
        </Node>
      </Node>
    </BinaryTree>
    <BinaryTree type="DecisionTree" boostWeight="1.5898629990041874e-01" itree="26">
      <Node pos="s" depth="0" NCoef="0" IVar="248" Cut="7.9079651832580566e+00" cType="0" res="-9.9000000000000000e+01" rms="0.0000000000000000e+00" purity="4.8124349117279053e-01" nType="0">
        <Node pos="l" depth="1" NCoef="0" IVar="22" Cut="5.6183815002441406e+01" cType="0" res="-9.9000000000000000e+01" rms="0.0000000000000000e+00" purity="5.0776249170303345e-01" nType="0">
          <Node pos="l" depth="2" NCoef="0" IVar="-1" Cut="0.0000000000000000e+00" cType="1" res="-9.9000000000000000e+01" rms="0.0000000000000000e+00" purity="7.6255458593368530e-01" nType="1"/>
          <Node pos="r" depth="2" NCoef="0" IVar="-1" Cut="0.0000000000000000e+00" cType="1" res="-9.9000000000000000e+01" rms="0.0000000000000000e+00" purity="4.7441333532333374e-01" nType="-1"/>
        </Node>
        <Node pos="r" depth="1" NCoef="0" IVar="1" Cut="2.5108257293701172e+01" cType="0" res="-9.9000000000000000e+01" rms="0.0000000000000000e+00" purity="2.6772314310073853e-01" nType="0">
          <Node pos="l" depth="2" NCoef="0" IVar="-1" Cut="0.0000000000000000e+00" cType="1" res="-9.9000000000000000e+01" rms="0.0000000000000000e+00" purity="6.0111743211746216e-01" nType="1"/>
          <Node pos="r" depth="2" NCoef="0" IVar="-1" Cut="0.0000000000000000e+00" cType="1" res="-9.9000000000000000e+01" rms="0.0000000000000000e+00" purity="1.4497460424900055e-01" nType="-1"/>
        </Node>
      </Node>
    </BinaryTree>
    <BinaryTree type="DecisionTree" boostWeight="2.1148669464920830e-01" itree="27">
      <Node pos="s" depth="0" NCoef="0" IVar="245" Cut="4.1200695037841797e+01" cType="0" res="-9.9000000000000000e+01" rms="0.0000000000000000e+00" purity="5.1229566335678101e-01" nType="0">
        <Node pos="l" depth="1" NCoef="0" IVar="91" Cut="2.4539316177368164e+01" cType="0" res="-9.9000000000000000e+01" rms="0.0000000000000000e+00" purity="6.6310304403305054e-01" nType="0">
          <Node pos="l" depth="2" NCoef="0" IVar="-1" Cut="0.0000000000000000e+00" cType="1" res="-9.9000000000000000e+01" rms="0.0000000000000000e+00" purity="7.4058270454406738e-01" nType="1"/>
          <Node pos="r" depth="2" NCoef="0" IVar="-1" Cut="0.0000000000000000e+00" cType="1" res="-9.9000000000000000e+01" rms="0.0000000000000000e+00" purity="3.7639901041984558e-01" nType="-1"/>
        </Node>
        <Node pos="r" depth="1" NCoef="0" IVar="74" Cut="4.6554046630859375e+01" cType="0" res="-9.9000000000000000e+01" rms="0.0000000000000000e+00" purity="4.7433727979660034e-01" nType="0">
          <Node pos="l" depth="2" NCoef="0" IVar="-1" Cut="0.0000000000000000e+00" cType="1" res="-9.9000000000000000e+01" rms="0.0000000000000000e+00" purity="5.3630536794662476e-01" nType="1"/>
          <Node pos="r" depth="2" NCoef="0" IVar="-1" Cut="0.0000000000000000e+00" cType="1" res="-9.9000000000000000e+01" rms="0.0000000000000000e+00" purity="3.3310806751251221e-01" nType="-1"/>
        </Node>
      </Node>
    </BinaryTree>
    <BinaryTree type="DecisionTree" boostWeight="2.8355333480224532e-01" itree="28">
      <Node pos="s" depth="0" NCoef="0" IVar="247" Cut="1.8663354873657227e+01" cType="0" res="-9.9000000000000000e+01" rms="0.0000000000000000e+00" purity="5.1482617855072021e-01" nType="0">
        <Node pos="l" depth="1" NCoef="0" IVar="4" Cut="1.5504238128662109e+01" cType="0" res="-9.9000000000000000e+01" rms="0.0000000000000000e+00" purity="5.7657963037490845e-01" nType="0">
          <Node pos="l" depth="2" NCoef="0" IVar="-1" Cut="0.0000000000000000e+00" cType="1" res="-9.9000000000000000e+01" rms="0.0000000000000000e+00" purity="7.3419028520584106e-01" nType="1"/>
          <Node pos="r" depth="2" NCoef="0" IVar="-1" Cut="0.0000000000000000e+00" cType="1" res="-9.9000000000000000e+01" rms="0.0000000000000000e+00" purity="4.6555250883102417e-01" nType="-1"/>
        </Node>
        <Node pos="r" depth="1" NCoef="0" IVar="192" Cut="5.8807706832885742e+00" cType="1" res="-9.9000000000000000e+01" rms="0.0000000000000000e+00" purity="3.9927980303764343e-01" nType="0">
          <Node pos="l" depth="2" NCoef="0" IVar="-1" Cut="0.0000000000000000e+00" cType="1" res="-9.9000000000000000e+01" rms="0.0000000000000000e+00" purity="6.3945066928863525e-01" nType="1"/>
          <Node pos="r" depth="2" NCoef="0" IVar="-1" Cut="0.0000000000000000e+00" cType="1" res="-9.9000000000000000e+01" rms="0.0000000000000000e+00" purity="3.0793869495391846e-01" nType="-1"/>
        </Node>
      </Node>
    </BinaryTree>
    <BinaryTree type="DecisionTree" boostWeight="1.9850978457261964e-01" itree="29">
      <Node pos="s" depth="0" NCoef="0" IVar="72" Cut="8.0748252868652344e+01" cType="1" res="-9.9000000000000000e+01" rms="0.0000000000000000e+00" purity="4.9482870101928711e-01" nType="0">
        <Node pos="l" depth="1" NCoef="0" IVar="7" Cut="6.2079524993896484e+00" cType="0" res="-9.9000000000000000e+01" rms="0.0000000000000000e+00" purity="5.3211629390716553e-01" nType="0">
          <Node pos="l" depth="2" NCoef="0" IVar="-1" Cut="0.0000000000000000e+00" cType="1" res="-9.9000000000000000e+01" rms="0.0000000000000000e+00" purity="5.6056553125381470e-01" nType="1"/>
          <Node pos="r" depth="2" NCoef="0" IVar="-1" Cut="0.0000000000000000e+00" cType="1" res="-9.9000000000000000e+01" rms="0.0000000000000000e+00" purity="2.2806410491466522e-01" nType="-1"/>
        </Node>
        <Node pos="r" depth="1" NCoef="0" IVar="-1" Cut="5.8374660491943359e+01" cType="0" res="-9.9000000000000000e+01" rms="0.0000000000000000e+00" purity="3.0223587155342102e-01" nType="-1"/>
      </Node>
    </BinaryTree>
    <BinaryTree type="DecisionTree" boostWeight="2.0137319071722928e-01" itree="30">
      <Node pos="s" depth="0" NCoef="0" IVar="126" Cut="6.1935428619384766e+01" cType="1" res="-9.9000000000000000e+01" rms="0.0000000000000000e+00" purity="5.1224410533905029e-01" nType="0">
        <Node pos="l" depth="1" NCoef="0" IVar="96" Cut="2.4454013824462891e+01" cType="1" res="-9.9000000000000000e+01" rms="0.0000000000000000e+00" purity="5.4133176803588867e-01" nType="0">
          <Node pos="l" depth="2" NCoef="0" IVar="-1" Cut="0.0000000000000000e+00" cType="1" res="-9.9000000000000000e+01" rms="0.0000000000000000e+00" purity="6.3171142339706421e-01" nType="1"/>
          <Node pos="r" depth="2" NCoef="0" IVar="-1" Cut="0.0000000000000000e+00" cType="1" res="-9.9000000000000000e+01" rms="0.0000000000000000e+00" purity="4.6518447995185852e-01" nType="-1"/>
        </Node>
        <Node pos="r" depth="1" NCoef="0" IVar="96" Cut="9.4523019790649414e+00" cType="1" res="-9.9000000000000000e+01" rms="0.0000000000000000e+00" purity="2.7450391650199890e-01" nType="0">
          <Node pos="l" depth="2" NCoef="0" IVar="-1" Cut="0.0000000000000000e+00" cType="1" res="-9.9000000000000000e+01" rms="0.0000000000000000e+00" purity="5.5831432342529297e-01" nType="1"/>
          <Node pos="r" depth="2" NCoef="0" IVar="-1" Cut="0.0000000000000000e+00" cType="1" res="-9.9000000000000000e+01" rms="0.0000000000000000e+00" purity="1.3108959794044495e-01" nType="-1"/>
        </Node>
      </Node>
    </BinaryTree>
    <BinaryTree type="DecisionTree" boostWeight="1.8962351133703215e-01" itree="31">
      <Node pos="s" depth="0" NCoef="0" IVar="47" Cut="6.2018913030624390e-01" cType="1" res="-9.9000000000000000e+01" rms="0.0000000000000000e+00" purity="5.1143848896026611e-01" nType="0">
        <Node pos="l" depth="1" NCoef="0" IVar="-1" Cut="2.9146865844726562e+01" cType="1" res="-9.9000000000000000e+01" rms="0.0000000000000000e+00" purity="7.4240672588348389e-01" nType="1"/>
        <Node pos="r" depth="1" NCoef="0" IVar="116" Cut="3.9053104400634766e+01" cType="1" res="-9.9000000000000000e+01" rms="0.0000000000000000e+00" purity="4.8534327745437622e-01" nType="0">
          <Node pos="l" depth="2" NCoef="0" IVar="-1" Cut="0.0000000000000000e+00" cType="1" res="-9.9000000000000000e+01" rms="0.0000000000000000e+00" purity="6.8265944719314575e-01" nType="1"/>
          <Node pos="r" depth="2" NCoef="0" IVar="-1" Cut="0.0000000000000000e+00" cType="1" res="-9.9000000000000000e+01" rms="0.0000000000000000e+00" purity="4.4482839107513428e-01" nType="-1"/>
        </Node>
      </Node>
    </BinaryTree>
    <BinaryTree type="DecisionTree" boostWeight="2.0958432823501072e-01" itree="32">
      <Node pos="s" depth="0" NCoef="0" IVar="38" Cut="6.2385101318359375e+01" cType="0" res="-9.9000000000000000e+01" rms="0.0000000000000000e+00" purity="5.3114622831344604e-01" nType="0">
        <Node pos="l" depth="1" NCoef="0" IVar="95" Cut="2.6950763702392578e+01" cType="1" res="-9.9000000000000000e+01" rms="0.0000000000000000e+00" purity="7.0509487390518188e-01" nType="0">
          <Node pos="l" depth="2" NCoef="0" IVar="-1" Cut="0.0000000000000000e+00" cType="1" res="-9.9000000000000000e+01" rms="0.0000000000000000e+00" purity="8.0581218004226685e-01" nType="1"/>
          <Node pos="r" depth="2" NCoef="0" IVar="-1" Cut="0.0000000000000000e+00" cType="1" res="-9.9000000000000000e+01" rms="0.0000000000000000e+00" purity="4.4978442788124084e-01" nType="-1"/>
        </Node>
        <Node pos="r" depth="1" NCoef="0" IVar="250" Cut="1.2264589309692383e+01" cType="0" res="-9.9000000000000000e+01" rms="0.0000000000000000e+00" purity="4.8939511179924011e-01" nType="0">
          <Node pos="l" depth="2" NCoef="0" IVar="-1" Cut="0.0000000000000000e+00" cType="1" res="-9.9000000000000000e+01" rms="0.0000000000000000e+00" purity="5.3600096702575684e-01" nType="1"/>
          <Node pos="r" depth="2" NCoef="0" IVar="-1" Cut="0.0000000000000000e+00" cType="1" res="-9.9000000000000000e+01" rms="0.0000000000000000e+00" purity="2.1877421438694000e-01" nType="-1"/>
        </Node>
      </Node>
    </BinaryTree>
    <BinaryTree type="DecisionTree" boostWeight="2.5338762469667059e-01" itree="33">
      <Node pos="s" depth="0" NCoef="0" IVar="94" Cut="3.7741973876953125e+01" cType="1" res="-9.9000000000000000e+01" rms="0.0000000000000000e+00" purity="4.9721542000770569e-01" nType="0">
        <Node pos="l" depth="1" NCoef="0" IVar="74" Cut="2.3852890014648438e+01" cType="0" res="-9.9000000000000000e+01" rms="0.0000000000000000e+00" purity="5.5659627914428711e-01" nType="0">
          <Node pos="l" depth="2" NCoef="0" IVar="-1" Cut="0.0000000000000000e+00" cType="1" res="-9.9000000000000000e+01" rms="0.0000000000000000e+00" purity="5.8351683616638184e-01" nType="1"/>
          <Node pos="r" depth="2" NCoef="0" IVar="-1" Cut="0.0000000000000000e+00" cType="1" res="-9.9000000000000000e+01" rms="0.0000000000000000e+00" purity="2.0466697216033936e-01" nType="-1"/>
        </Node>
        <Node pos="r" depth="1" NCoef="0" IVar="91" Cut="8.4796920776367188e+01" cType="0" res="-9.9000000000000000e+01" rms="0.0000000000000000e+00" purity="3.6861348152160645e-01" nType="0">
          <Node pos="l" depth="2" NCoef="0" IVar="-1" Cut="0.0000000000000000e+00" cType="1" res="-9.9000000000000000e+01" rms="0.0000000000000000e+00" purity="5.9310716390609741e-01" nType="1"/>
          <Node pos="r" depth="2" NCoef="0" IVar="-1" Cut="0.0000000000000000e+00" cType="1" res="-9.9000000000000000e+01" rms="0.0000000000000000e+00" purity="2.9097703099250793e-01" nType="-1"/>
        </Node>
      </Node>
    </BinaryTree>
    <BinaryTree type="DecisionTree" boostWeight="1.5276432293377898e-01" itree="34">
      <Node pos="s" depth="0" NCoef="0" IVar="248" Cut="1.5545354843139648e+01" cType="0" res="-9.9000000000000000e+01" rms="0.0000000000000000e+00" purity="4.6201252937316895e-01" nType="0">
        <Node pos="l" depth="1" NCoef="0" IVar="2" Cut="3.1719453811645508e+01" cType="0" res="-9.9000000000000000e+01" rms="0.0000000000000000e+00" purity="5.1620858907699585e-01" nType="0">
          <Node pos="l" depth="2" NCoef="0" IVar="-1" Cut="0.0000000000000000e+00" cType="1" res="-9.9000000000000000e+01" rms="0.0000000000000000e+00" purity="9.8042547702789307e-01" nType="1"/>
          <Node pos="r" depth="2" NCoef="0" IVar="-1" Cut="0.0000000000000000e+00" cType="1" res="-9.9000000000000000e+01" rms="0.0000000000000000e+00" purity="4.9703282117843628e-01" nType="-1"/>
        </Node>
        <Node pos="r" depth="1" NCoef="0" IVar="23" Cut="6.1886085510253906e+01" cType="0" res="-9.9000000000000000e+01" rms="0.0000000000000000e+00" purity="3.2660388946533203e-01" nType="0">
          <Node pos="l" depth="2" NCoef="0" IVar="-1" Cut="0.0000000000000000e+00" cType="1" res="-9.9000000000000000e+01" rms="0.0000000000000000e+00" purity="5.8046168088912964e-01" nType="1"/>
          <Node pos="r" depth="2" NCoef="0" IVar="-1" Cut="0.0000000000000000e+00" cType="1" res="-9.9000000000000000e+01" rms="0.0000000000000000e+00" purity="2.5072661042213440e-01" nType="-1"/>
        </Node>
      </Node>
    </BinaryTree>
    <BinaryTree type="DecisionTree" boostWeight="1.1022884282451718e-01" itree="35">
      <Node pos="s" depth="0" NCoef="0" IVar="253" Cut="-1.5634663403034210e-01" cType="0" res="-9.9000000000000000e+01" rms="0.0000000000000000e+00" purity="5.1758378744125366e-01" nType="0">
        <Node pos="l" depth="1" NCoef="0" IVar="-1" Cut="3.1040580749511719e+01" cType="1" res="-9.9000000000000000e+01" rms="0.0000000000000000e+00" purity="5.3913134336471558e-01" nType="1"/>
        <Node pos="r" depth="1" NCoef="0" IVar="71" Cut="7.4272460937500000e+01" cType="1" res="-9.9000000000000000e+01" rms="0.0000000000000000e+00" purity="2.5647836923599243e-01" nType="0">
          <Node pos="l" depth="2" NCoef="0" IVar="-1" Cut="0.0000000000000000e+00" cType="1" res="-9.9000000000000000e+01" rms="0.0000000000000000e+00" purity="5.0340086221694946e-01" nType="1"/>
          <Node pos="r" depth="2" NCoef="0" IVar="-1" Cut="0.0000000000000000e+00" cType="1" res="-9.9000000000000000e+01" rms="0.0000000000000000e+00" purity="1.2558825314044952e-01" nType="-1"/>
        </Node>
      </Node>
    </BinaryTree>
    <BinaryTree type="DecisionTree" boostWeight="2.0261992952239202e-01" itree="36">
      <Node pos="s" depth="0" NCoef="0" IVar="92" Cut="2.5861461639404297e+01" cType="1" res="-9.9000000000000000e+01" rms="0.0000000000000000e+00" purity="5.1679104566574097e-01" nType="0">
        <Node pos="l" depth="1" NCoef="0" IVar="-1" Cut="1.7866487503051758e+01" cType="1" res="-9.9000000000000000e+01" rms="0.0000000000000000e+00" purity="6.8395930528640747e-01" nType="1"/>
        <Node pos="r" depth="1" NCoef="0" IVar="145" Cut="3.4760417938232422e+01" cType="1" res="-9.9000000000000000e+01" rms="0.0000000000000000e+00" purity="4.7884139418601990e-01" nType="0">
          <Node pos="l" depth="2" NCoef="0" IVar="-1" Cut="0.0000000000000000e+00" cType="1" res="-9.9000000000000000e+01" rms="0.0000000000000000e+00" purity="5.4416823387145996e-01" nType="1"/>
          <Node pos="r" depth="2" NCoef="0" IVar="-1" Cut="0.0000000000000000e+00" cType="1" res="-9.9000000000000000e+01" rms="0.0000000000000000e+00" purity="3.4254476428031921e-01" nType="-1"/>
        </Node>
      </Node>
    </BinaryTree>
    <BinaryTree type="DecisionTree" boostWeight="1.5677158498485896e-01" itree="37">
      <Node pos="s" depth="0" NCoef="0" IVar="135" Cut="5.7047966003417969e+01" cType="1" res="-9.9000000000000000e+01" rms="0.0000000000000000e+00" purity="4.8484718799591064e-01" nType="0">
        <Node pos="l" depth="1" NCoef="0" IVar="-1" Cut="0.0000000000000000e+00" cType="1" res="-9.9000000000000000e+01" rms="0.0000000000000000e+00" purity="8.3847242593765259e-01" nType="1"/>
        <Node pos="r" depth="1" NCoef="0" IVar="2" Cut="3.7769367218017578e+01" cType="0" res="-9.9000000000000000e+01" rms="0.0000000000000000e+00" purity="4.6934932470321655e-01" nType="0">
          <Node pos="l" depth="2" NCoef="0" IVar="-1" Cut="0.0000000000000000e+00" cType="1" res="-9.9000000000000000e+01" rms="0.0000000000000000e+00" purity="7.7719968557357788e-01" nType="1"/>
          <Node pos="r" depth="2" NCoef="0" IVar="-1" Cut="0.0000000000000000e+00" cType="1" res="-9.9000000000000000e+01" rms="0.0000000000000000e+00" purity="4.4817838072776794e-01" nType="-1"/>
        </Node>
      </Node>
    </BinaryTree>
    <BinaryTree type="DecisionTree" boostWeight="1.6159159310502830e-01" itree="38">
      <Node pos="s" depth="0" NCoef="0" IVar="141" Cut="2.9432294845581055e+01" cType="1" res="-9.9000000000000000e+01" rms="0.0000000000000000e+00" purity="4.9503394961357117e-01" nType="0">
        <Node pos="l" depth="1" NCoef="0" IVar="-1" Cut="4.6616600036621094e+01" cType="1" res="-9.9000000000000000e+01" rms="0.0000000000000000e+00" purity="6.1331206560134888e-01" nType="1"/>
        <Node pos="r" depth="1" NCoef="0" IVar="-1" Cut="6.4541893005371094e+01" cType="1" res="-9.9000000000000000e+01" rms="0.0000000000000000e+00" purity="4.3637225031852722e-01" nType="-1"/>
      </Node>
    </BinaryTree>
    <BinaryTree type="DecisionTree" boostWeight="2.4407316474595503e-01" itree="39">
      <Node pos="s" depth="0" NCoef="0" IVar="135" Cut="8.2145767211914062e+01" cType="0" res="-9.9000000000000000e+01" rms="0.0000000000000000e+00" purity="4.9895709753036499e-01" nType="0">
        <Node pos="l" depth="1" NCoef="0" IVar="94" Cut="4.3458690643310547e+01" cType="1" res="-9.9000000000000000e+01" rms="0.0000000000000000e+00" purity="6.2509357929229736e-01" nType="0">
          <Node pos="l" depth="2" NCoef="0" IVar="-1" Cut="0.0000000000000000e+00" cType="1" res="-9.9000000000000000e+01" rms="0.0000000000000000e+00" purity="6.6792303323745728e-01" nType="1"/>
          <Node pos="r" depth="2" NCoef="0" IVar="-1" Cut="0.0000000000000000e+00" cType="1" res="-9.9000000000000000e+01" rms="0.0000000000000000e+00" purity="2.4867458641529083e-01" nType="-1"/>
        </Node>
        <Node pos="r" depth="1" NCoef="0" IVar="192" Cut="2.0814051628112793e+00" cType="1" res="-9.9000000000000000e+01" rms="0.0000000000000000e+00" purity="4.4500264525413513e-01" nType="0">
          <Node pos="l" depth="2" NCoef="0" IVar="-1" Cut="0.0000000000000000e+00" cType="1" res="-9.9000000000000000e+01" rms="0.0000000000000000e+00" purity="7.1999049186706543e-01" nType="1"/>
          <Node pos="r" depth="2" NCoef="0" IVar="-1" Cut="0.0000000000000000e+00" cType="1" res="-9.9000000000000000e+01" rms="0.0000000000000000e+00" purity="4.1720914840698242e-01" nType="-1"/>
        </Node>
      </Node>
    </BinaryTree>
    <BinaryTree type="DecisionTree" boostWeight="2.6160313773473809e-01" itree="40">
      <Node pos="s" depth="0" NCoef="0" IVar="215" Cut="3.0966358184814453e+01" cType="0" res="-9.9000000000000000e+01" rms="0.0000000000000000e+00" purity="5.2348810434341431e-01" nType="0">
        <Node pos="l" depth="1" NCoef="0" IVar="-1" Cut="5.4758426666259766e+01" cType="0" res="-9.9000000000000000e+01" rms="0.0000000000000000e+00" purity="5.9754109382629395e-01" nType="1"/>
        <Node pos="r" depth="1" NCoef="0" IVar="63" Cut="6.4035692214965820e+00" cType="1" res="-9.9000000000000000e+01" rms="0.0000000000000000e+00" purity="3.6498847603797913e-01" nType="0">
          <Node pos="l" depth="2" NCoef="0" IVar="-1" Cut="0.0000000000000000e+00" cType="1" res="-9.9000000000000000e+01" rms="0.0000000000000000e+00" purity="8.3074027299880981e-01" nType="1"/>
          <Node pos="r" depth="2" NCoef="0" IVar="-1" Cut="0.0000000000000000e+00" cType="1" res="-9.9000000000000000e+01" rms="0.0000000000000000e+00" purity="3.2034504413604736e-01" nType="-1"/>
        </Node>
      </Node>
    </BinaryTree>
    <BinaryTree type="DecisionTree" boostWeight="1.1607811143953890e-01" itree="41">
      <Node pos="s" depth="0" NCoef="0" IVar="133" Cut="1.0102981567382812e+02" cType="1" res="-9.9000000000000000e+01" rms="0.0000000000000000e+00" purity="5.0287038087844849e-01" nType="0">
        <Node pos="l" depth="1" NCoef="0" IVar="140" Cut="8.8671981811523438e+01" cType="1" res="-9.9000000000000000e+01" rms="0.0000000000000000e+00" purity="5.1624888181686401e-01" nType="0">
          <Node pos="l" depth="2" NCoef="0" IVar="-1" Cut="0.0000000000000000e+00" cType="1" res="-9.9000000000000000e+01" rms="0.0000000000000000e+00" purity="5.3261303901672363e-01" nType="1"/>
          <Node pos="r" depth="2" NCoef="0" IVar="-1" Cut="0.0000000000000000e+00" cType="1" res="-9.9000000000000000e+01" rms="0.0000000000000000e+00" purity="1.4232207834720612e-01" nType="-1"/>
        </Node>
        <Node pos="r" depth="1" NCoef="0" IVar="-1" Cut="0.0000000000000000e+00" cType="1" res="-9.9000000000000000e+01" rms="0.0000000000000000e+00" purity="6.2177520245313644e-02" nType="-1"/>
      </Node>
    </BinaryTree>
    <BinaryTree type="DecisionTree" boostWeight="1.8248851751876766e-01" itree="42">
      <Node pos="s" depth="0" NCoef="0" IVar="104" Cut="9.2180076599121094e+01" cType="1" res="-9.9000000000000000e+01" rms="0.0000000000000000e+00" purity="4.8874816298484802e-01" nType="0">
        <Node pos="l" depth="1" NCoef="0" IVar="125" Cut="6.9863113403320312e+01" cType="1" res="-9.9000000000000000e+01" rms="0.0000000000000000e+00" purity="5.1386815309524536e-01" nType="0">
          <Node pos="l" depth="2" NCoef="0" IVar="-1" Cut="0.0000000000000000e+00" cType="1" res="-9.9000000000000000e+01" rms="0.0000000000000000e+00" purity="5.4634702205657959e-01" nType="1"/>
          <Node pos="r" depth="2" NCoef="0" IVar="-1" Cut="0.0000000000000000e+00" cType="1" res="-9.9000000000000000e+01" rms="0.0000000000000000e+00" purity="3.2339936494827271e-01" nType="-1"/>
        </Node>
        <Node pos="r" depth="1" NCoef="0" IVar="56" Cut="7.3379623413085938e+01" cType="0" res="-9.9000000000000000e+01" rms="0.0000000000000000e+00" purity="2.6692852377891541e-01" nType="0">
          <Node pos="l" depth="2" NCoef="0" IVar="-1" Cut="0.0000000000000000e+00" cType="1" res="-9.9000000000000000e+01" rms="0.0000000000000000e+00" purity="6.4601558446884155e-01" nType="1"/>
          <Node pos="r" depth="2" NCoef="0" IVar="-1" Cut="0.0000000000000000e+00" cType="1" res="-9.9000000000000000e+01" rms="0.0000000000000000e+00" purity="1.3058736920356750e-01" nType="-1"/>
        </Node>
      </Node>
    </BinaryTree>
    <BinaryTree type="DecisionTree" boostWeight="1.5041537438947220e-01" itree="43">
      <Node pos="s" depth="0" NCoef="0" IVar="129" Cut="1.3347640991210938e+01" cType="1" res="-9.9000000000000000e+01" rms="0.0000000000000000e+00" purity="4.8892986774444580e-01" nType="0">
        <Node pos="l" depth="1" NCoef="0" IVar="-1" Cut="1.2596313476562500e+01" cType="1" res="-9.9000000000000000e+01" rms="0.0000000000000000e+00" purity="7.4166399240493774e-01" nType="1"/>
        <Node pos="r" depth="1" NCoef="0" IVar="206" Cut="2.8229410171508789e+01" cType="1" res="-9.9000000000000000e+01" rms="0.0000000000000000e+00" purity="4.5423972606658936e-01" nType="0">
          <Node pos="l" depth="2" NCoef="0" IVar="-1" Cut="0.0000000000000000e+00" cType="1" res="-9.9000000000000000e+01" rms="0.0000000000000000e+00" purity="5.0409007072448730e-01" nType="1"/>
          <Node pos="r" depth="2" NCoef="0" IVar="-1" Cut="0.0000000000000000e+00" cType="1" res="-9.9000000000000000e+01" rms="0.0000000000000000e+00" purity="3.2038477063179016e-01" nType="-1"/>
        </Node>
      </Node>
    </BinaryTree>
    <BinaryTree type="DecisionTree" boostWeight="2.7313150048366502e-01" itree="44">
